tree
version=v3
num_class=1
num_tree_per_iteration=1
label_index=0
max_feature_idx=16
objective=lambdarank
feature_names=Column_0 Column_1 Column_2 Column_3 Column_4 Column_5 Column_6 Column_7 Column_8 Column_9 Column_10 Column_11 Column_12 Column_13 Column_14 Column_15 Column_16
feature_infos=[0:2] [-70.151735101300005:51.037318891399998] [-35.230675101300001:23.2172498107] [-35.337033300000002:0] [-54.921059999999997:0] [1:53] [-3:9] [0.33333333333300003:10] [-139.316488475:-4.0295532941800003] [-9.3901996612499996:-1.6320354938499999] [-71.678859872399997:-3.3281604051599998] [1.28516708794e-06:81207.552370200006] [-136.671872646:-4.2936413288099997] [-139.316488475:-4.0295532941800003] [0:28] [0:1] [0:25]
tree_sizes=3616 3614 3607 3612 3613 3627 3619 3627 3625 3615 3610 3639 3643 3635 3621 3638 3620 3658 3622 3643 3644 3658 3662 3635 3643 3649 3650 3650 3659 3667 3661 3648 3649 3670 3648 3646 3648 3645 3650 3677 3659 3669 3662 3658 3654 3660 3651 3660 3665 3660 3653 3673 3673 3656 3654 3654 3651 3665 3676 3642 3650 3659 3645 3634 3660 3654 3638 3666 3629 3643 3653 3640 3648 3672 3640 3640 3657 3639 3647 3639 3649 3638 3637 3605 3656 3656 3646 3644 3644 3669 3656 3642 3657 3650 3651 3649 3646 3652 3662 3644 3650 3633 3668 3633 3678 3642 3647 3666 3667 3669 3650 3675 3644 3667 3649 3607 3637 3667 3643 3664 3634 3630 3629 3611 3665 3643 3646 3636 3662 3664 3607 3655 3646 3659 3600 3631 3652 3639 3644 3625 3658 3634 3680 3635 3637 3611 3646 3625 3620 3625 3587 3624 3635 3595 3587 3663 3632 3601 3650 3666 3646 3633 3633 3632 3646 3645 3641 3669 3647 3651 3651 3620 3630 3620 3627 3672 3606 3591 3608 3605 3645 3632 3636 3641 3646 3636 3622 3613 3598 3651 3614 3612 3659 3606 3643 3615 3611 3586 3619 3639 3590 3659 3630 3649 3631 3631 3632 3625 3649 3594 3639 3635 3623 3671 3620 3597 3666 3604 3622 3631 3611 3655 3568 3568 3640 3607 3639 3595 3588 3589 3590 3637 3612 3621 3631 3600 3619 3604 3601 3614 3624 3615 3557 3588 3591 3600 3574 3644 3552 3657 3600 3575 3559 3590 3566 3612 3558 3613 3577 3593 3614 3590 3639 3595 3594 3591 3567 3573 3662 3555 3649 3650 3631 3609 3636 3564 3599 3631 3615 3639 3590 3623 3661 3596 3587 3566 3568 3551 3591 3635 3601 3571 3561 3643 3617 3583 3588 3594 3585 3614 3559 3608 3600 3627 3594 3632 3636 3598 3593 3554 3610 3594 3624 3627 3556 3584 3563 3585 3590 3511 3558 3559 3550 3562 3602 3610 3561 3624 3572 3622 3606 3588 3544 3589 3669 3586 3573 3592 3615 3587 3563 3617 3592 3558 3577 3613 3574 3580 3621 3567 3544 3579 3537 3577 3574 3643 3546 3568 3653 3584 3649 3632 3570 3651 3545 3532 3628 3576 3588 3554 3566 3555 3566 3523 3588 3543 3552 3528 3563 3549 3581 3603 3568 3613 3576 3586 3606 3621 3630 3619 3579 3569 3557 3604 3626 3574 3600 3550 3564 3611 3566 3608 3592 3592 3563 3624 3603 3600 3594 3562 3597 3608 3580 3521 3582 3536 3580 3574 3635 3626 3589 3549 3593 3546 3545 3554 3580 3582 3644 3642 3538 3549 3604 3539 3646 3545 3555 3622 3607 3566 3555 3622 3556 3593 3544 3613 3581 3575 3551 3565 3611 3575 3586 3553 3588 3590 3544 3565 3610 3572 3592 3558 3629 3568 3569 3547 3621 3604 3608 3601 3544 3595 3579 3591 3550 3584 3609 3560 3587 3588 3623 3586 3591 3530 3605 3615 3563 3605 3596 3547 3555 3560 3615 3530 3568 3548 3641 3592 3638 3570

Tree=0
num_leaves=32
num_cat=0
split_feature=2 0 3 10 0 5 5 2 15 2 3 10 2 10 9 2 10 3 5 3 5 3 10 15 5 16 8 8 9 1 5
split_gain=205323 46098.5 44165.4 34569.2 22017.3 10058.4 6149.29 15956.9 5591.24 2470.11 1871.91 1815.88 1605.35 1412.05 1371.42 1516.04 1362.31 1256.54 945.771 855.235 802.313 793.093 948.028 891.254 764.196 712.985 620.49 604.251 535.781 518.953 505.338
threshold=1.0000000180025095e-35 1.5000000000000002 -5.4334861499999993 -7.4533486787199994 1.5000000000000002 2.5000000000000004 3.5000000000000004 -1.1139437146449997 1.0000000180025095e-35 2.9953003590950007 -6.4853435999999993 -6.5933589885599995 -0.86697198450599988 -7.1611529191299992 -6.786139488219999 -1.1139437146449997 -10.928764768699997 -4.5742914499999996 3.5000000000000004 -11.410629949999999 2.5000000000000004 -5.0909087999999993 -9.2850731719299997 0.59411764705900005 5.5000000000000009 2.5000000000000004 -14.391304939999999 -13.039191111899997 -6.2150905132299998 4.4154155630800007 3.5000000000000004
decision_type=2 2 2 2 2 2 2 2 2 2 2 2 2 2 2 2 2 2 2 2 2 2 2 2 2 2 2 2 2 2 2
left_child=1 2 10 6 21 11 14 17 -6 13 -1 28 -7 25 -4 -16 24 -8 -14 -3 -17 -2 23 -23 -9 -10 -22 -19 -5 -11 -15
right_child=4 19 3 5 8 12 7 16 9 29 -12 -13 18 30 15 20 -18 27 -20 -21 26 22 -24 -25 -26 -27 -28 -29 -30 -31 -32
leaf_value=0.18525109186923799 0.18618632583969991 -0.13526784074419196 -0.19307128269681187 -0.18584420113538597 -0.19759836853187729 -0.028786167964059035 -0.050076675023913823 -0.069110602632738743 0.025328950896503173 -0.0034550474573222033 0.086092179366324184 0.0013755225667116729 0.085460417365366276 -0.013575091694952291 -0.16825214782320785 -0.14383715573474437 0.088636087043171774 -0.17885461550040105 0.14918678601147969 -0.1922810435556862 -0.13654557267631603 -0.090029804856142592 0.16779395928393542 0.11597381165677959 0.0526096574141127 -0.077000080805542562 -0.027720550540308721 -0.098641844300342105 -0.088122129371658586 0.11082326646770857 0.10643437066479444
leaf_weight=6920.256477699033 36497.036037077429 2889.7194729881012 8988.1075951594976 751.07462224247865 1089.7733960305341 793.59525604388909 980.70890812238213 1114.8056339139002 986.593270802201 444.85671363194706 2626.3117121917603 2620.4299003063352 4378.893421100569 509.7784193639236 7885.9118954290461 1958.2746619216923 3660.3858783069882 7889.4588516008225 4974.5758302695467 29396.99254926038 733.78932999711833 248.68238588044187 8590.9883643648354 1350.7041912311688 959.94290020712651 2197.5231395817536 1832.0192216066644 1066.0393201659899 2217.5685964309087 3723.0164087979356 1125.6312226100417
leaf_count=48537 168274 92500 94517 7008 23238 22882 26437 23324 22435 11841 24222 24900 35425 10016 203000 21316 44933 423175 34608 1660155 10979 4324 41906 16724 21544 80162 21986 45487 24224 43097 16804
internal_value=0 -0.0901893 -0.0399672 -0.075752 0.150365 0.0484314 -0.128468 -0.0808759 0.0163129 0.0422509 0.157972 -0.0592934 0.107767 -0.00650158 -0.163324 -0.141779 0.0519429 -0.157538 0.119353 -0.187178 -0.0956333 0.179299 0.154634 0.0839431 -0.0127932 -0.0452936 -0.0588432 -0.169306 -0.112846 0.0986258 0.0690259
internal_weight=0 94638.9 62352.2 52805.6 56764.6 15736.1 37069.4 15671.3 10077.2 8987.4 9546.57 5589.07 10147.1 4819.53 21398.1 12410 5735.13 9936.21 9353.47 32286.7 4524.08 46687.4 10190.4 1599.39 2074.75 3184.12 2565.81 8955.5 2968.64 4167.87 1635.41
internal_count=3349980 2911159 1158504 1085745 438821 149047 936698 584900 207593 184355 72759 56132 92915 129417 351798 257281 89801 495099 70033 1752655 54281 231228 62954 21048 44868 102597 32965 468662 31232 54938 26820
shrinkage=0.1


Tree=1
num_leaves=32
num_cat=0
split_feature=2 0 3 10 0 3 1 5 16 9 10 3 15 2 3 7 14 3 3 12 5 15 16 3 7 8 8 5 10 10 3
split_gain=316329 84745.9 62240.9 43830.2 42766.4 14307.5 11313.4 21271.6 10601.4 8702.17 7605.61 7027.83 6995.4 6824.97 5129.95 5109.93 4713.33 3791.21 3772.22 3418.38 3391.42 3227.69 2690.72 4576.15 2676.2 2488.75 2125.5 2080.31 2408.85 1934.31 1926.63
threshold=1.0000000180025095e-35 1.5000000000000002 -5.8128387499999992 -7.6784608493949991 1.5000000000000002 -6.1948566999999999 -0.78827706489399996 2.5000000000000004 2.5000000000000004 -5.5570523738849991 -8.3844649597999972 -7.5222343499999988 1.0000000180025095e-35 -0.37549062748399992 -12.486348649999998 1.1833333333350002 1.5000000000000002 -4.5742914499999996 -4.7845971499999989 -7.8437249558049986 4.5000000000000009 0.59411764705900005 2.5000000000000004 -3.2964550999999997 0.88194444444450004 -10.816079549499998 -10.704901456849997 4.5000000000000009 -6.4207147933549988 -9.5576043948499976 -11.278895099999998
decision_type=2 2 2 2 2 2 2 2 2 2 2 2 2 2 2 2 2 2 2 2 2 2 2 2 2 2 2 2 2 2 2
left_child=1 2 11 6 5 -2 18 -8 10 -5 21 -1 -6 19 26 24 20 -10 -4 -11 29 -7 23 -15 -12 -16 -14 28 -25 -9 -3
right_child=4 30 3 9 12 8 7 16 17 13 15 -13 14 22 25 -17 -18 -19 -20 -21 -22 -23 -24 27 -26 -27 -28 -29 -30 -31 -32
leaf_value=0.15290651211852194 0.1470267054665774 -0.11173290840791772 -0.059132930233792395 -0.10752372808594349 -0.16727463265990522 -0.04522340797115617 -0.14720227441010869 -0.070351533210068332 0.049595691850383858 0.0052924597703904661 -0.14439540312763438 0.04982420113398036 0.026241491772369615 0.10353613828433526 -0.067035836478213748 -0.050322794761992806 -0.10855341064653218 -0.070658647410271488 -0.14989410062796635 -0.11567948214897548 0.03430273928111368 0.064621909547035852 -0.1010060513161105 -0.015334823873490534 0.12722315918251553 0.011041386445135059 0.12083024547894977 0.071764206038614914 0.03746326834967139 -0.003126729404592226 -0.16474763496032807
leaf_weight=14776.034533036174 83408.905584165826 7617.7960393661633 5220.3956925815437 6227.6636750135804 2635.8329107235186 3484.4118271188345 22098.675113966805 8057.4595450276393 5708.6776954983361 4232.0395388560719 365.32243860699236 11973.015738389688 7463.5236356916139 8149.9376002042554 9082.3013030631701 1711.4060776997358 5290.5435272543691 4848.1115833817748 37287.38825199916 5213.4746815339895 12198.98953030078 11516.113875151146 1497.8032116754912 16955.296380647225 51388.695432099747 7416.1786971150432 3484.8945355606265 6885.5092366086319 17622.309064207715 9130.3948984005256 68454.585435591638
leaf_count=40083 125813 99920 26451 22695 23238 7569 93150 45482 7221 22251 650 19998 35916 10553 102073 2227 59217 12102 595918 28299 68262 21252 4197 40694 54394 39197 7169 11972 33781 35501 1652735
internal_value=0 -0.0700606 -0.0347981 -0.0576003 0.0978553 0.118139 -0.0997351 -0.0705267 0.0876474 0.00503902 0.10203 0.106766 -0.0116654 0.0166151 0.00327833 0.119684 -0.021664 -0.00563004 -0.138748 -0.0614783 -0.0060212 0.0391064 0.0310471 0.0350337 0.125306 -0.0319396 0.0563492 0.021569 0.0115735 -0.0346409 -0.159439
internal_weight=0 268889 192817 166068 192514 162432 99283.8 56776.1 79022.7 66784 68465.9 26749.1 30082.7 60556.4 27446.9 53465.4 34677.4 10556.8 42507.8 9445.51 29386.8 15000.5 51110.9 49613.1 51754 16498.5 10948.4 41463.1 34577.6 17187.9 76072.4
internal_count=3349980 2911159 1158504 1098423 438821 231228 923981 301612 105415 174442 86092 60081 207593 151747 184355 57271 208462 19323 622369 50550 149245 28821 101197 97000 55044 141270 43085 86447 74475 80983 1752655
shrinkage=0.1


Tree=2
num_leaves=32
num_cat=0
split_feature=2 3 0 0 3 9 2 3 2 10 10 5 15 16 10 5 12 2 16 4 3 4 14 16 5 15 8 10 3 3 3
split_gain=240248 48444.3 37687.3 24670.3 49040.4 23069.9 9668.24 6263.26 5933.49 3838.79 3250.93 3230.75 2879.77 2269.65 2165.12 2103.66 2033.45 1826.07 1765.21 1716.29 1578.53 3732.86 1518.37 1436.39 1520.9 1425.22 1405.1 1372.56 1487.87 1323.11 1295.86
threshold=-0.49259388184849995 -3.2964550999999997 1.5000000000000002 1.5000000000000002 -5.1881139499999991 -5.7166810035699998 0.71582007408150006 -6.9595393499999991 1.3974203690850002 -8.7421976761899973 -9.7467093326149978 1.5000000000000002 1.0000000180025095e-35 2.5000000000000004 -6.8138400545999991 2.5000000000000004 -8.0313975275499985 8.458470011130002 2.5000000000000004 -6.2523319999999991 -3.3125027499999997 -3.6459635499999994 1.5000000000000002 1.5000000000000002 5.5000000000000009 0.59411764705900005 -7.8517543598999984 -7.0481265012649992 -7.2291863499999991 -3.2964550999999997 -12.053203299999998
decision_type=2 2 2 2 2 2 2 2 2 2 2 2 2 2 2 2 2 2 2 2 2 2 2 2 2 2 2 2 2 2 2
left_child=3 2 6 4 7 11 10 -1 18 -6 19 -3 -10 -14 23 -16 29 26 -4 -2 21 -12 -22 24 -7 -21 -15 28 -8 -11 -5
right_child=1 5 8 30 9 14 27 -9 12 16 20 -13 13 17 15 -17 -18 -19 -20 25 22 -23 -24 -25 -26 -27 -28 -29 -30 -31 -32
leaf_value=0.12265341552807869 0.10276849801013233 -0.15026411346745813 -0.01489118156628492 -0.094461805750072861 -0.13294788182127351 -0.0059371072248658383 0.13561248443566706 0.012450760237197159 -0.14875661621961397 -0.00028510829828617631 0.091950692029795708 -0.061968332632326477 0.083176904753493 -0.026883698463827873 -0.0025786165778249582 0.060910938577111273 -0.10803555564131009 0.097200633785841165 -0.098623019578858384 -0.077858842513241183 0.16323187979159715 0.0080697317301669774 -0.16301213822417779 -0.10702243316777448 0.052203058291884409 0.023993097284947706 0.084505170558438147 0.13768913272537961 0.094625374276054067 -0.12177543713787518 -0.15155642993723425
leaf_weight=10001.219229088631 1892.3143917205743 9761.9454608338419 3703.3263730626786 4237.5927628416684 37998.765608491318 20752.254142213205 15771.777390519856 10647.958838402643 958.11757924617268 4536.7774704959011 37608.415424436331 7200.8803824326897 5377.9747715188423 8586.1801010540221 7367.2993646748655 17895.559866273543 5951.4306253213435 1804.323033505585 7864.6633321385016 1920.5025858173613 3393.6709001469426 6176.6991663278313 148.91700277198106 1159.9220766932704 5744.9132343556266 4826.8183634415036 1304.516527372878 55324.436576987151 20199.972103409469 1117.1602171949344 64216.098626359773
leaf_count=35664 3893 65292 35733 59602 647464 79708 27648 32365 9799 36734 73689 42055 22299 69008 23846 38853 67195 5129 115180 8283 3358 14769 937 8056 19696 18302 4146 89505 31123 21297 1639352
internal_value=0 0.0591928 0.0870453 -0.105298 -0.0636682 -0.0112975 0.107741 0.0658263 -0.0159192 -0.117574 0.0750151 -0.112782 0.0199427 0.0294099 0.021232 0.0423958 -0.0672363 0.00468502 -0.0718175 0.0186064 0.0853125 0.0801177 0.149518 0.00190027 0.0066684 -0.00499721 -0.0121923 0.127802 0.112596 -0.0242904 -0.148022
internal_weight=0 246745 176863 138707 70253.3 69882.8 147264 20649.2 29599.1 49604.1 55967.3 16962.8 18031.1 17073 52919.9 25262.9 11605.4 11695 11568 8639.64 47327.7 43785.1 3542.59 27657.1 26497.2 6747.32 9890.7 91296.2 35971.7 5653.94 68453.7
internal_count=3349980 810307 532801 2539673 840719 277506 271507 68029 261294 772690 123231 107347 110381 100582 170159 62699 125226 78283 150913 30478 92753 88458 4295 107460 99404 26585 73154 148276 58771 58031 1698954
shrinkage=0.1


Tree=3
num_leaves=32
num_cat=0
split_feature=2 2 0 0 3 9 0 3 4 2 15 3 3 3 16 4 5 5 3 4 3 8 10 10 5 10 10 3 5 10 3
split_gain=194714 30611.3 20644.7 18972.2 34393.7 15406.5 5127.43 4251.83 3645.43 3444.71 3242.77 3144.12 2505.55 2380.95 2022.83 2711.94 1959.78 1786.01 1676.61 1662.72 1595.56 1531.79 1501.75 1300.45 1240.36 1218.14 1196.97 1130.66 1063.04 1038.12 1013.9
threshold=-0.43440393730999999 0.25144204497350003 1.5000000000000002 1.5000000000000002 -5.1881139499999991 -6.0054807662949994 1.5000000000000002 -7.0433536499999994 -5.8923315999999994 -2.4121229080499993 1.0000000180025095e-35 -3.2964550999999997 -12.053203299999998 -4.6451544999999994 2.5000000000000004 -4.2212119499999998 3.5000000000000004 1.5000000000000002 -3.3125027499999997 -3.4709823999999996 -3.2964550999999997 -9.4198297411249978 -8.5900051565849989 -8.1388639360649986 3.5000000000000004 -6.0372299896549988 -7.9607450406349995 -10.485614499999999 4.5000000000000009 -9.0352439175049977 -3.4666839999999994
decision_type=2 2 2 2 2 2 2 2 2 2 2 2 2 2 2 2 2 2 2 2 2 2 2 2 2 2 2 2 2 2 2
left_child=3 5 13 4 7 8 11 -1 -2 30 -4 14 23 29 18 -16 25 -10 19 -7 24 28 -18 -12 -11 -13 -15 -5 -14 -3 -6
right_child=1 2 10 27 9 6 -8 -9 17 20 12 16 21 26 15 -17 22 -19 -20 -21 -22 -23 -24 -25 -26 -27 -28 -29 -30 -31 -32
leaf_value=0.11110782323069801 0.075853034635059838 0.093475282072167251 -0.13853764662866741 -0.1028844099409946 -0.10544843490386385 0.072325524673793953 -0.082767961946315555 0.013691015671812416 -0.1380837750157706 -0.079051894161457026 0.020836062275973889 -0.010854024815901711 -0.10093407127146017 0.03007559844730083 0.06567850197081436 -0.10775741406332864 0.006139462739077943 -0.059987445356425806 0.14502810056138468 -0.046806118966282367 -0.12734401675654813 0.030070651868269745 0.060878917701331303 0.09636235792363991 -0.0068554842287100407 0.043380844339826197 0.090961242132039932 -0.14223904570102605 -0.019235249187206416 0.12103629877604181 -0.14086808209124432
leaf_weight=7975.2198235634714 1251.3585858218139 17003.160330052255 1520.8318636270706 8417.1180654632044 15579.872844799655 18489.168195587234 3782.1260223325226 10223.851280153613 6630.8872274053283 4654.3152206472587 5913.6038211219711 18727.405145472847 2470.6631880492205 4553.3486825221917 2247.9485817190725 1505.2968588218791 7591.6551255765371 5244.3671918561449 2998.8094513369724 1250.8196769207716 2857.1267821289948 3893.8890569052892 14748.224166518543 3710.1357802958228 4869.2139162370004 5317.1412343711709 11100.522580084391 55019.935812481795 4481.541111982544 69642.604539582971 16792.49539631384
leaf_count=35652 8652 32028 19505 151478 234421 40678 68848 33509 64958 36875 37876 80124 31343 15213 5755 10024 39566 38277 3639 5519 57654 23308 37373 10612 55994 14338 16986 1553775 60354 133668 391978
internal_value=0 0.0581077 0.0902474 -0.0984217 -0.0595289 0.0136165 0.0307579 0.0563811 -0.086488 -0.106664 0.00234442 0.0366497 0.0128114 0.109143 0.064134 -0.00388064 0.0209523 -0.103595 0.0753604 0.0647768 -0.0618022 -0.0201442 0.0422771 0.0499529 -0.0421391 0.00113932 0.073251 -0.137017 -0.0482692 0.115628 -0.123822
internal_weight=0 214076 124290 126389 62952.1 89785.2 76658.6 18199.1 13126.6 44753 21990.7 72876.5 20469.8 102300 26492 3753.25 46384.4 11875.3 22738.8 19740 12380.7 10846.1 22339.9 9623.74 9523.53 24044.5 15653.9 63437.1 6952.2 86645.8 32372.4
internal_count=3349980 798644 380893 2551336 846083 417751 305864 69161 111887 776922 182998 237016 163493 197895 65615 15779 171401 103235 49836 46197 150523 115005 76939 48488 92869 94462 32199 1705253 91697 165696 626399
shrinkage=0.1


Tree=4
num_leaves=32
num_cat=0
split_feature=2 2 0 0 3 9 0 2 3 4 3 10 5 3 5 10 10 16 3 15 4 3 12 0 14 3 3 6 16 1 4
split_gain=157712 22423.2 16654.4 13349.6 24045.6 9344.86 4115.97 2804.15 2705.15 2631.08 2480.84 2165.5 2103.24 2050.02 1778.09 1798.8 1629.05 1598.36 994.638 1148.82 961.387 935.015 925.898 908.242 836.441 819.502 803.835 954.372 1088 799.95 772.574
threshold=-0.67848398536449983 0.14718179032200002 1.5000000000000002 1.5000000000000002 -5.5620165999999989 -5.3783423900599994 1.5000000000000002 4.0914889499550009 -3.4666839999999994 -5.276298699999999 -5.4334861499999993 -9.2850731719299997 1.5000000000000002 -7.6545715499999991 2.5000000000000004 -8.5493139783549985 -8.0958509728249997 2.5000000000000004 -3.2964550999999997 0.77350427350450002 -8.2650574499999987 -11.410629949999999 -8.0726516805599982 1.5000000000000002 1.5000000000000002 -5.2717339999999995 -7.3481420999999987 -1.0000000180025095e-35 1.0000000180025095e-35 0.23733335050700002 -5.4100854999999992
decision_type=2 2 2 2 2 2 2 2 2 2 2 2 2 2 2 2 2 2 2 2 2 2 2 2 2 2 2 2 2 2 2
left_child=3 5 10 4 13 9 14 17 11 23 26 -6 -11 -1 30 25 -12 -4 -17 -20 -18 -5 -13 -2 -22 -16 -3 28 -28 -10 -7
right_child=1 2 7 21 8 6 -8 -9 29 12 16 22 -14 -15 15 18 20 -19 19 -21 24 -23 -24 -25 -26 -27 27 -29 -30 -31 -32
leaf_value=0.10887625116908191 0.071569667585705141 0.12200521213069676 0.020999953988017045 -0.086232997442114212 -0.098198504563873468 0.085347907562869391 -0.075775846799063046 0.049025704972115516 -0.13033307751084922 -0.12917710394343931 0.036812621909747476 -0.0028855328784445598 -0.04478215919493958 0.026996461835890734 0.074754229378892076 0.077568608309051656 -0.19269217996766097 -0.051434799373892906 -0.08784460321088855 0.046291641090369623 0.10187770686127261 -0.13351135907678696 -0.068933950063803484 -0.094840721381619114 0.059115350334597506 0.0019356268264686489 -0.18674955287870953 0.10172879499387187 0.090801802206105439 -0.02943909843749969 -0.0077596528821425974
leaf_weight=5151.5936517447699 1781.1907623372972 28462.190542151919 4621.1062873175833 4548.5453746253625 14104.960102436307 970.50508839963004 3577.8493012110703 7631.8614128821064 17555.840692922618 4884.803856369108 8183.3031095081242 4459.1742156833643 7466.7057872222504 7523.3030000950675 1783.5122734913602 12383.78169002739 120.76638791803271 8939.5777888612356 656.91344144940376 22779.820547583979 16741.209289471386 52058.297209945915 4050.2926745301811 401.99524638964795 6293.8170630387031 11580.210370468907 246.72596027515829 37161.963428261923 330.32525517512113 822.66118113906123 10904.669172495574
leaf_count=31300 8762 84411 35299 81795 223223 3585 81229 39293 445801 65500 25268 42816 57374 20400 4532 28936 200 118040 3142 66009 23864 1596634 46641 7919 12866 67286 1285 62453 522 14485 49110
internal_value=0 0.0533999 0.0808865 -0.0958343 -0.060101 0.0121787 0.0284703 0.00053769 -0.0973212 -0.0602714 0.0983439 -0.0741631 -0.0781589 0.0602757 0.0345787 0.0429638 0.0751648 -0.026751 0.0546447 0.0425319 0.0887185 -0.129712 -0.0343229 0.0409281 0.0901938 0.0116539 0.109317 0.0997472 -0.027869 -0.125817 -0.000150387
internal_weight=0 197905 118733 110275 53667.8 79172 64637.3 21192.5 40992.9 14534.7 97540.3 22614.4 12351.5 12674.9 61059.4 49184.2 31339.1 13560.7 35820.5 23436.7 23155.8 56606.8 8509.47 2183.19 23035 13363.7 66201.2 37739 577.051 18378.5 11875.2
internal_count=3349980 846885 403501 2503095 824666 443384 303829 192632 772966 139555 210869 312680 122874 51700 222600 169905 62198 153339 98087 69151 36930 1678429 89457 16681 36730 71818 148671 64260 1807 460286 52695
shrinkage=0.1


Tree=5
num_leaves=32
num_cat=0
split_feature=2 2 0 3 0 9 0 3 3 2 2 4 16 1 16 3 10 3 9 4 3 3 5 10 15 8 5 10 3 10 10
split_gain=128997 15729.1 12809.5 20490.5 11878.2 6805.57 4059.04 2960.23 2772.52 2352.23 1858.94 1574.18 1542.29 1352.52 1325.75 2154.74 1219.45 1136.07 1120.43 1063.64 1055.65 992.229 906.808 874.882 858.438 1000.41 848.391 770.106 707.131 599.645 580.242
threshold=-0.37549062748399992 0.43537322105850002 1.5000000000000002 -5.0329220499999989 1.5000000000000002 -6.4387912750249994 1.5000000000000002 -6.2766371999999988 -3.2964550999999997 -2.6488436087999996 5.9773564711200011 -6.6671881499999994 3.5000000000000004 2.2464518534300004 2.5000000000000004 -5.0909087999999993 -9.9808427892599969 -3.3125027499999997 -4.6011350154899988 -3.2600029499999992 -2.3354075999999995 -11.048793099999999 1.5000000000000002 -8.7755094827149982 1.0000000180025095e-35 -7.9948917739099992 3.5000000000000004 -8.0958509728249997 -11.547238699999999 -9.0714728530099986 -7.5711680464449991
decision_type=2 2 2 2 2 2 2 2 2 2 2 2 2 2 2 2 2 2 2 2 2 2 2 2 2 2 2 2 2 2 2
left_child=2 5 3 7 13 11 8 -1 14 -5 12 -2 24 27 17 -16 -11 19 -10 29 -20 -4 -13 -9 -6 28 -18 -3 -26 -7 -15
right_child=1 4 21 9 10 6 -8 23 18 16 -12 22 -14 30 15 -17 26 -19 20 -21 -22 -23 -24 -25 25 -27 -28 -29 -30 -31 -32
leaf_value=0.08136058334380597 0.075523956046440383 0.050682711320941126 -0.081082725283102217 -0.11135973001167938 -0.12518551023515831 0.029352685216374432 -0.07113923100546235 -0.029594330666112296 -0.012690388794158031 -0.099106823952450324 0.065534006187941446 -0.12282527737504118 -0.050168061734661373 0.091547293029820509 0.077600926185177554 -0.067251367236214929 -0.065952111009832767 0.13035380762113119 -0.061898664266300876 -0.052984902510953405 0.030510810012301978 -0.12690214020151924 -0.047672460357523351 0.039994027397242615 0.041795381227839497 0.087387539068953066 0.001566250444243449 0.089075278654523402 -0.026100175930373649 0.072356175069735476 0.11399858437286424
leaf_weight=8526.417049620999 643.7105071763508 7237.8670360185206 5250.7068534266436 25024.993772975169 403.54112286237068 4006.9904992257943 3846.5352380183758 4908.2523161444115 9353.9156920624664 4379.8556363128591 4266.5930459524971 3510.3457484806422 5667.6195546259405 17422.46099696192 2071.8646556631429 2036.2042725160718 3768.3721639018331 2551.3517015124671 1288.9720064888243 804.89056560094468 30191.511417018395 47313.386035529315 2958.8784553345758 2859.0289138020016 2807.8579404645134 1916.3831281489693 3676.8553668701788 18783.340225774096 3381.1241749634501 16996.624428570271 33928.670003924053
leaf_count=42350 7051 20326 107308 599611 7129 14414 78763 25742 56148 93084 18700 64109 74628 35683 5639 12932 38440 3725 8658 4393 116871 1604484 29311 9952 17358 8030 42365 49153 41603 39278 72742
internal_value=0 0.0524243 -0.087323 -0.0527027 0.0797794 0.0197683 0.0288485 0.0406784 0.0343982 -0.0939923 0.0076631 -0.0736125 -0.00975383 0.0969696 0.0583534 0.00580348 -0.0572382 0.0672154 0.0176978 0.0598289 0.0267271 -0.122325 -0.0884521 -0.00397982 0.0171653 0.0242525 -0.0326079 0.0783963 0.00470313 0.0641521 0.106381
internal_weight=0 176077 105708 53143.8 95815.5 80261.8 73148.9 16293.7 69302.3 36850.1 18443.1 7112.93 14176.5 77372.3 28467.9 4108.07 11825.1 24359.9 40834.4 21808.5 31480.5 52564.1 6469.22 7767.28 8508.91 8105.37 7445.23 26021.2 6188.98 21003.6 51351.1
internal_count=3349980 786644 2563336 851544 345352 441292 340821 78044 262058 773500 167448 100471 148748 177904 80381 18571 173889 61810 181677 58085 125529 1711792 93420 35694 74120 66991 80805 69479 58961 53692 108425
shrinkage=0.1


Tree=6
num_leaves=32
num_cat=0
split_feature=2 2 0 0 3 9 0 3 14 1 1 3 3 3 16 4 14 10 15 5 2 4 8 5 4 4 10 3 10 3 15
split_gain=107712 15132.5 9839.4 8104.59 14279.4 4340.38 4435.5 1975.61 2646.89 1764.87 1683.23 1664.62 1600.09 1480.44 1479.5 1418.62 1161.47 1154.57 1001 986.892 961.319 919.546 909.774 867.965 786.215 906.156 777.701 770.544 802.917 740.376 674.928
threshold=-1.0546417534349997 0.30981120467200007 1.5000000000000002 1.5000000000000002 -5.3367967499999986 -6.0054807662949994 1.5000000000000002 -5.0329220499999989 1.5000000000000002 1.0000000180025095e-35 4.6665965669600009 -4.6451544999999994 -6.8248290999999996 -3.4666839999999994 1.0000000180025095e-35 -5.8923315999999994 1.5000000000000002 -9.1070930429849977 1.0000000180025095e-35 3.5000000000000004 -3.2981583699549994 -4.2212119499999998 -11.346898473799998 1.5000000000000002 -2.8861384999999999 -2.9111970499999997 -7.1611529191299992 -7.3481420999999987 -8.5900051565849989 -11.048793099999999 0.27922077922050004
decision_type=2 2 2 2 2 2 2 2 2 2 2 2 2 2 2 2 2 2 2 2 2 2 2 2 2 2 2 2 2 2 2
left_child=3 5 11 4 12 15 7 14 9 17 -4 27 -1 20 16 -2 -7 -9 -12 -19 -6 -10 -20 -17 25 -11 -13 -3 -29 -5 -30
right_child=1 2 10 29 13 6 -8 8 21 24 18 26 -14 -15 -16 23 -18 19 22 -21 -22 -23 -24 -25 -26 -27 -28 28 30 -31 -32
leaf_value=0.082824975879945417 0.041781324578961443 0.11111891055626411 -0.03155305157576286 -0.079856466085015412 -0.091652041236313209 -0.13490439283361852 -0.067918668494629422 -0.013389965994130885 0.0075956052229941926 0.052574057367109475 -0.11871416487213995 0.025104313111795132 0.0054124589167880328 -0.11622881628900726 0.075548295492482903 -0.11794973868463934 0.090065448947337354 0.011650428604508706 0.011761829046781525 0.046394715888056999 -0.041698282987365332 -0.088698412552396855 0.071449234235800199 -0.044548766689242909 -0.089814841677802737 0.12810882847348357 0.076336176447253934 0.060624718298623204 0.015024397121817508 -0.12370489919625982 0.097714174036394416
leaf_weight=4891.2343185513746 1233.9761070162058 21859.637156543089 6993.0733149294974 4246.8723568722489 9987.0504556005762 624.23090618848801 5129.2023341373424 8670.775520140538 1536.6574550543446 4492.5352588407695 426.83201581274625 4948.8798715730663 5879.7263319819467 14630.087684485537 11113.39284444286 2752.0283521130914 362.90479389810935 17779.329931088607 5914.181576163508 15134.348413688829 6271.6057827754994 2796.2729563480243 4494.2804647677112 3885.6095906844712 286.30431042448618 2456.7222543209791 7383.9150687709916 8559.4499412558507 1019.4244777299464 41283.005006334977 31114.195834151935
leaf_count=32415 14533 80868 97173 95083 200507 3592 140056 63539 8158 13991 8509 16505 21752 449567 31970 64960 1347 83246 51714 47202 90219 28435 20424 43205 2748 3933 13219 18974 4495 1540402 57239
internal_value=0 0.0461279 0.0734604 -0.0904511 -0.0585781 0.0137449 0.021621 0.0286592 0.0203571 0.0270052 0.00669443 0.0893557 0.0405665 -0.09315 0.065127 -0.0566774 -0.0521978 0.0190742 0.0313793 0.0276265 -0.0723829 -0.0545481 0.0375343 -0.0749815 0.0725865 0.0792773 0.055778 0.0959758 0.0878412 -0.119615 0.0950909
internal_weight=0 170968 92713.9 87189.6 41659.7 78254.3 70382.7 65253.5 53152.9 48820 17828.4 74885.5 10771 30888.7 12100.5 7871.61 987.136 41584.5 10835.3 32913.7 16258.7 4332.93 10408.5 6637.64 7235.56 6949.26 12332.8 62552.7 40693.1 45529.9 32133.6
internal_count=3349980 920035 369120 2429945 794460 550915 428217 288161 251252 214659 177820 191300 54167 740293 36909 122698 4939 193987 80647 130448 290726 36593 72138 108165 20672 17924 29724 161576 80708 1635485 61734
shrinkage=0.1


Tree=7
num_leaves=32
num_cat=0
split_feature=2 2 0 0 3 0 9 3 14 3 4 1 3 16 14 2 8 3 10 15 10 5 3 3 3 3 5 10 4 3 16
split_gain=89514.1 12265.7 7199.89 7096.36 11676.4 4381.87 3526.37 2446.77 1902.11 1817.76 1503.48 1422.18 1333.01 1160.3 1433.25 1062.63 1293.62 961.594 920.516 897.551 890.881 789.985 755.131 744.145 798.923 735.915 728.722 704.461 677.145 677.052 673.368
threshold=-1.0546417534349997 0.56403535045650022 1.5000000000000002 1.5000000000000002 -4.9518575499999988 1.5000000000000002 -6.5058200359349998 -4.7126294999999994 1.5000000000000002 -6.2190266999999988 -6.3206138999999988 1.0000000180025095e-35 -12.738461999999998 1.0000000180025095e-35 1.5000000000000002 4.0914889499550009 -7.904132211114999 -3.4666839999999994 -8.0958509728249997 0.14835164835150003 -6.6473704506649991 4.5000000000000009 -4.0231937999999987 -3.2089924999999995 -3.3125027499999997 -10.400813599999998 3.5000000000000004 -10.141623134449999 -4.2212119499999998 -6.4166585499999984 1.5000000000000002
decision_type=2 2 2 2 2 2 2 2 2 2 2 2 2 2 2 2 2 2 2 2 2 2 2 2 2 2 2 2 2 2 2
left_child=3 5 15 4 9 6 10 13 11 -1 -2 20 19 14 -8 16 22 27 -14 -4 21 -9 -3 24 -13 -5 -20 -6 -10 -15 -31
right_child=1 2 12 25 17 -7 7 8 28 -11 -12 23 18 29 -16 -17 -18 -19 26 -21 -22 -23 -24 -25 -26 -27 -28 -29 -30 30 -32
leaf_value=0.065816944859186863 0.088322406448844371 0.070016093511208868 -0.038036680591452703 -0.080360248639273518 -0.096861962630025666 -0.064984129047276504 -0.11461360924931777 -0.010187717794784645 0.017060566461907314 -0.013187474137099423 -0.076094962951785625 0.044714633102994845 -0.042073041643490988 0.096144307178591348 0.089706877129218709 0.11061223893944441 0.098002521471702214 -0.11135348408559423 -0.037781449529975475 0.063907959231933473 0.034480705093043164 0.02710818382507801 0.010096093115667523 -0.1217349192130391 0.11521534139940877 -0.12054915061716238 0.047664574501044339 -0.051090451651098073 -0.070866302475376217 0.075421143760577972 0.028646026782120679
leaf_weight=6050.7884756037965 632.84040846326388 21503.4248077019 1029.7186524762074 5218.0524423312745 6549.5616690055176 6099.8515654602961 809.30829364026431 14967.352959195618 1222.3884404206183 5614.6500856043422 4590.2940512858331 4508.7279680727515 4850.4424959313474 5358.1006199326366 596.25786810833961 15381.648977567442 21457.618405084591 13193.108680210426 1466.0336095242528 5354.5467765759095 15854.795994095271 9152.0347812253167 2331.1989329336211 208.78256852878258 2497.8800595012726 35929.295280161838 3127.1302477262216 6910.2302036704496 3089.7162579880096 6593.1847184280632 5772.0397484641289
leaf_count=36904 7228 53737 12035 143588 161667 167282 5195 100344 6797 33800 95604 14551 75164 20830 2347 32753 70491 449567 18011 29330 57170 46566 8024 2355 4784 1491897 22941 112522 31544 16381 18571
internal_value=0 0.0434376 0.0722342 -0.086615 -0.0556482 0.0165566 0.0231138 0.0289771 0.017634 0.0277916 -0.056174 0.0234433 0.0121698 0.0595169 -0.0279384 0.0879031 0.0801908 -0.0921682 -0.0116913 0.0474653 0.0160678 0.00396411 0.0641555 0.0643048 0.0698484 -0.115453 0.0203921 -0.073363 -0.0459409 0.0664527 0.0535867
internal_weight=0 158455 76501.8 79465.7 38318.3 81953.6 75853.7 70630.6 51501.7 11665.4 5223.13 47189.6 15827.9 19128.9 1405.57 60673.9 45292.2 26652.9 9443.61 6384.27 39974.2 24119.4 23834.6 7215.39 7006.61 41147.3 4593.16 13459.8 4312.1 17723.3 12365.2
internal_count=3349980 920035 322486 2429945 794460 597549 430267 327435 264111 70704 102832 225770 157481 63324 7542 165005 132252 723756 116116 41365 204080 146910 61761 21690 19335 1635485 40952 274189 38341 55782 34952
shrinkage=0.1


Tree=8
num_leaves=32
num_cat=0
split_feature=2 0 3 1 0 5 2 1 10 2 3 10 3 4 16 3 4 16 0 7 0 5 15 3 2 4 16 3 6 16 10
split_gain=75173.9 8322.4 10912.8 8247.92 6707.17 2530.51 1893.14 1694.36 1654.24 1653.13 1471.3 1129.4 931.048 821.497 704.246 685.623 678.977 672.051 652.697 649.992 630.858 575.258 568.592 565.737 516.871 493.373 486.901 678.69 544.05 1018.91 482.13
threshold=-0.37549062748399992 1.5000000000000002 -5.0329220499999989 0.2991488363155001 1.5000000000000002 1.5000000000000002 1.2801645770650003 -0.78827706489399996 -9.5931710610199978 2.2682524695950002 -7.3481420999999987 -8.8472561255099986 -9.8686920999999987 -3.6459635499999994 1.0000000180025095e-35 -3.9049565499999992 -5.306544849999999 3.5000000000000004 1.5000000000000002 0.9198717948720001 1.5000000000000002 3.5000000000000004 0.59411764705900005 -6.1661185499999993 -2.7890937328299996 -6.4722456999999993 2.5000000000000004 -4.5742914499999996 -1.0000000180025095e-35 1.0000000180025095e-35 -9.389097479974998
decision_type=2 2 2 2 2 2 2 2 2 2 2 2 2 2 2 2 2 2 2 2 2 2 2 2 2 2 2 2 2 2 2
left_child=1 2 10 5 6 25 11 15 20 19 -1 16 -3 18 -9 -4 -5 -11 -10 -6 23 -15 -18 -7 -12 -2 28 -28 29 -13 -16
right_child=3 12 7 4 9 8 -8 14 13 17 24 26 -14 21 30 -17 22 -19 -20 -21 -22 -23 -24 -25 -26 -27 27 -29 -30 -31 -32
leaf_value=0.082322343992694377 0.11017275822959488 -0.076528941299596684 -0.066820506714514769 0.074545083407252244 0.055518630986757737 0.081268074609021732 0.092916193549205717 0.08027228057093444 0.057397769013930559 0.057880696752481801 -0.014339746774669277 -0.14439633864957907 -0.11694768306496393 0.0054876003647558163 -0.076572446970459104 -0.10644619572090458 -0.05818127932195747 0.0041458265086088885 -0.026473896394733323 -0.040328587449945281 -0.084704261092816646 0.033583822499508087 0.022621746047897157 -0.014527851940899068 0.032373034304574111 -0.10871010430265829 0.059611677397596097 -0.043278433743949907 0.078624295142166165 0.092532785190320724 -0.024398389775681678
leaf_weight=3766.5802026113961 108.945047929883 6928.2535562044068 6170.8539228251611 1902.258140315651 796.84576569893397 661.80774430418387 37424.939627235639 458.50575967865007 10533.158847143175 5292.5396813013358 4856.6381353250472 316.62302850536071 32123.696750849718 15709.990303445666 3185.1343671062496 14933.156189001151 1126.6229220208479 4154.5474926729221 1017.4867771746358 6312.9283755779616 1204.9012714896817 13592.290871133388 3835.9967062547803 9001.2553365160129 4623.8852197923698 1880.7101153666445 2749.7444096903782 836.01151389803272 20087.849479061319 425.34466636739671 3989.6722952365526
leaf_count=34591 2638 226722 122375 6666 7429 2254 102163 4389 43088 34216 24788 1758 1485070 93823 83262 510435 6820 39377 20291 116780 30363 49266 15873 76998 18665 65778 9627 4911 55409 1116 53039
internal_value=0 -0.0765487 -0.0456414 0.0446363 0.0639719 0.0139421 0.0777404 -0.0802562 0.0181994 0.00683754 0.0294495 0.0595835 -0.109777 0.0274236 -0.0398817 -0.0948596 0.0237488 0.0342497 0.0500096 -0.0295863 -0.0164746 0.0185204 0.0042777 -0.00796694 0.00844323 -0.096725 0.0696591 0.0356231 0.0755183 -0.00857299 -0.0475602
internal_weight=0 81036.4 41984.4 138973 85262.3 53710.5 68705.4 28737.3 51720.9 16556.9 13247.1 31280.5 39052 40852.9 7633.31 21104 6864.88 9447.09 11550.6 7109.77 10868 29302.3 4962.62 9663.06 9480.52 1989.66 24415.6 3585.76 20829.8 741.968 7174.81
internal_count=3349980 2563336 851544 786644 402145 384499 204343 773500 316083 197802 78044 102180 1711792 206468 140690 632810 29359 73593 63379 124209 109615 143089 22693 79252 43453 68416 72821 14538 58283 2874 136301
shrinkage=0.1


Tree=9
num_leaves=32
num_cat=0
split_feature=2 2 0 0 3 0 3 9 14 3 3 3 1 3 15 8 16 5 14 3 10 3 4 3 4 3 2 3 16 10 2
split_gain=63228.9 9300.75 5180.75 5081.47 7858.62 2988.06 2108.55 2399.84 1568.96 1292.15 1169.98 1168.42 1007.07 1367.76 868.983 923.542 849.343 771.966 769.172 691.816 677.757 661.713 815.448 668.045 591.176 552.252 505.931 491.875 479.759 466.69 464.388
threshold=-1.3474288284799998 0.43537322105850002 1.5000000000000002 1.5000000000000002 -5.6599033499999996 1.5000000000000002 -5.2717339999999995 -5.2825336456299992 1.5000000000000002 -4.5742914499999996 -11.162639449999999 -5.0909087999999993 -0.37339445200449994 -3.2964550999999997 1.0000000180025095e-35 -10.025600480149999 1.0000000180025095e-35 1.5000000000000002 1.5000000000000002 -12.738461999999998 -6.8138400545999991 -3.3125027499999997 -3.6459635499999994 -3.8672965999999995 -5.1150111499999991 -8.2507149499999972 5.2392632961250003 -3.4666839999999994 2.5000000000000004 -6.5933589885599995 8.458470011130002
decision_type=2 2 2 2 2 2 2 2 2 2 2 2 2 2 2 2 2 2 2 2 2 2 2 2 2 2 2 2 2 2 2
left_child=3 5 11 4 25 6 16 17 12 -6 14 26 -9 21 -4 30 18 -8 -2 -5 -13 22 23 -14 -10 -1 29 -11 -7 -3 -16
right_child=1 2 10 19 9 28 7 8 24 27 -12 20 13 -15 15 -17 -18 -19 -20 -21 -22 -23 -24 -25 -26 -27 -28 -29 -30 -31 -32
leaf_value=0.088167066081153628 -0.1065002276786607 0.068521353314621267 -0.11125261659655789 -0.043778021353018788 -0.032882904388578181 -0.01395368515368482 -0.10824111219400548 -0.031139494097619198 0.048917460677868174 -0.074200531113412224 -0.023057347857510103 0.028327387756513934 0.042848595220694598 0.017673633384918761 0.0068681723377481754 0.09104574789636237 0.064852511292609383 -0.027079218113855892 0.07978786471017621 -0.11311508376750204 0.073439439685813873 0.1140129347151464 -0.0067453343765658848 0.113956737061256 -0.052763519825926267 0.02431060452131328 0.10875506017178337 -0.10594458948739516 -0.078844316368062287 0.09243470650218337 0.081466613024552173
leaf_weight=1877.4377728119725 573.95760022616014 15703.835397786926 392.2731036801124 1508.482340518618 4708.2425556880189 1631.2643209149828 1456.5658601415344 3029.4170187268173 671.46216746361461 9106.1997008226317 5911.4086801554658 6221.4405406339793 3886.114995741169 28496.204594827257 4971.7617938325857 2573.350682526594 10620.003798218211 5996.5612797079375 361.07895338453818 31239.364421350387 7166.6699994951487 1897.6654095892445 2010.0134921810823 2001.7474740394391 3852.048592421168 4860.8165347275208 8180.697781476425 10520.687785009926 3778.3103008891048 16991.201474925736 1002.8091585368384
leaf_count=25477 4456 54254 11172 36003 54511 45128 65550 29739 2889 233372 91245 19893 13040 147636 50532 10630 44434 71766 2013 1564322 15035 4470 10577 3661 42066 17168 21395 439003 147347 67327 3869
internal_value=0 0.037747 0.0637927 -0.0824349 -0.0534676 0.0121265 0.0180824 0.00968671 0.0182425 -0.0799304 0.0114595 0.0781159 0.0243634 0.0287545 0.0342827 0.0409614 0.0568079 -0.0429407 -0.0345622 -0.109921 0.0524759 0.0609897 0.0482496 0.0670238 -0.0376702 0.0421025 0.0865138 -0.0912164 -0.0592765 0.0809488 0.0193892
internal_weight=0 139378 69115.4 63821.2 31073.4 70262.4 64852.8 53297.8 45844.7 24335.1 14851.6 54263.8 41321.2 38291.7 8940.19 8547.92 11555 7453.13 935.037 32747.8 13388.1 9795.54 7897.88 5887.86 4523.51 6738.25 40875.7 19626.9 5409.57 32695 5974.57
internal_count=3349980 980124 345352 2369856 769531 634772 442297 391394 254078 726886 167448 177904 209123 179384 76203 65031 50903 137316 6469 1600325 34928 31748 27278 16701 44955 42645 142976 672375 192475 121581 54401
shrinkage=0.1


Tree=10
num_leaves=32
num_cat=0
split_feature=2 2 0 3 0 0 3 9 14 3 3 10 3 1 3 3 10 3 2 3 5 14 16 14 3 2 3 15 4 3 3
split_gain=53309.5 8080.06 4490.64 6411.09 3792.47 2987.68 2260.7 1626.24 1194.33 936.112 896.559 855.722 851.712 813.428 1067.35 790.556 750.878 646.606 614.305 614.133 605.662 600.181 590.188 929.398 552.053 537.914 500.426 497.03 494.059 705.063 525.223
threshold=-1.4595249816799998 0.63757541030650011 1.5000000000000002 -5.3367967499999986 1.5000000000000002 1.5000000000000002 -4.7126294999999994 -5.3476560115799989 1.5000000000000002 -13.0501925 -6.8952611999999993 -6.5933589885599995 -3.4666839999999994 -0.37339445200449994 -3.2964550999999997 -6.2766371999999988 -6.6473704506649991 -11.410629949999999 2.2682524695950002 -3.3125027499999997 1.5000000000000002 2.5000000000000004 1.0000000180025095e-35 1.5000000000000002 -6.1661185499999993 -3.6576096755449998 -3.7212300499999995 0.89181286549700012 -3.6459635499999994 -3.8672965999999995 -3.9387621999999998
decision_type=2 2 2 2 2 2 2 2 2 2 2 2 2 2 2 2 2 2 2 2 2 2 2 2 2 2 2 2 2 2 2
left_child=2 5 3 15 10 6 22 20 13 21 -3 18 25 -9 19 -1 -11 -4 -12 28 -8 -6 23 -2 -24 -5 -10 -22 29 -15 -30
right_child=1 4 17 12 9 -7 7 8 26 16 11 -13 -14 14 -16 -17 -18 -19 -20 -21 27 -23 24 -25 -26 -27 -28 -29 30 -31 -32
leaf_value=0.05617071082041012 -0.090818489549953654 0.094977852248892491 -0.057736487640267412 -0.080482396448375071 0.11908797451956679 -0.054784888212560605 -0.10586732746562802 -0.033436351486755951 -0.0066217958232699286 -0.022928981195515754 0.029209572347142599 0.083124075013393153 -0.10297357452247435 0.02249545664897187 0.014751291772730249 -0.0088764333544998214 0.043694017264307744 -0.11225435932098332 0.071407059603206605 0.10896477972967965 -0.084837509514048004 0.032957351795722227 0.077383393321797611 0.078398822333600821 0.040081627273229753 -0.036223987955100713 -0.077965095681550231 -0.0084611236037235547 0.04942470837435034 0.10640790476679803 -0.04821248484909163
leaf_weight=4161.0691448976868 730.67285720212385 16915.012955700397 2367.5668432455859 6657.6600000970211 1013.6420572664356 5979.1089472463063 1154.1640270770295 2642.603714390425 2288.8312775713857 6034.2682743067271 7649.9879562445858 14195.85479699634 9373.0685119915433 2095.8360693430295 27543.255520273087 3391.13065138401 2350.7057973959018 26819.23202354525 6283.7201769038802 1733.6628397408058 1094.9163251315476 4008.0172772119113 6300.0029618197004 583.98572487360798 10716.393823052873 4674.0755385229422 1723.5333301718347 3841.2920447270735 1177.3056663806783 1917.3966716548894 1035.5768688300159
leaf_count=33559 5990 84024 70974 183538 3840 221676 65513 31054 17669 95051 23480 35786 434862 8133 150473 16419 20405 1515405 14746 4587 17694 32897 35744 3148 38917 91486 27652 50114 4374 3838 6932
internal_value=0 0.0352184 -0.0803213 -0.0519053 0.062888 0.0129285 0.0190095 0.00765144 0.0146295 0.0161978 0.0767845 0.0658443 -0.0806729 0.0200883 0.0240723 0.0269629 -0.0042514 -0.107832 0.0482395 0.0563259 -0.040651 0.0503432 0.0489045 -0.0156503 0.0538919 -0.0622268 -0.0372677 -0.0254024 0.0416686 0.0625862 0.0037328
internal_weight=0 131010 57443.8 28257 58451.2 72558.5 66579.4 48248.4 42158 13406.6 45044.6 28129.6 20704.8 38145.6 35503 7552.2 8384.97 29186.8 13933.7 7959.78 6090.37 5021.66 18331.1 1314.66 17016.4 11331.7 4012.36 4936.21 6226.12 4013.23 2212.88
internal_count=3349980 1003737 2346243 759864 310229 693508 471832 388033 254712 152193 158036 74012 709886 209391 178337 49978 115456 1586379 38226 27864 133321 36737 83799 9138 74661 275024 45321 67808 23277 11971 11306
shrinkage=0.1


Tree=11
num_leaves=32
num_cat=0
split_feature=2 2 0 3 0 0 3 3 3 5 10 3 14 15 8 2 3 10 5 3 2 1 14 16 14 3 10 2 3 10 5
split_gain=44963.6 7220.53 3924.68 5371.48 3660.01 1600.89 1536.42 1311.05 1073.15 1178.13 1101.21 758.794 743.147 742.356 838.158 694.974 655.925 634.584 605.255 600.429 599.596 565.816 450.837 438.798 1213.56 413.751 392.646 385.468 375.209 341.055 333.114
threshold=-1.6273240707799996 0.09516964014620001 1.5000000000000002 -5.1881139499999991 1.5000000000000002 1.5000000000000002 -4.6451544999999994 -10.945784099999999 -5.6599033499999996 2.5000000000000004 -8.5493139783549985 -6.2766371999999988 1.5000000000000002 1.0000000180025095e-35 -11.006253242499998 2.9953003590950007 -3.4666839999999994 -6.3610965222099987 1.5000000000000002 -11.410629949999999 -0.20210308022799997 -0.19765433441999997 2.5000000000000004 1.0000000180025095e-35 1.5000000000000002 -6.8474084 -10.108932805799999 5.2392632961250003 -3.5874707999999997 -9.3191268096399984 3.5000000000000004
decision_type=2 2 2 2 2 2 2 2 2 2 2 2 2 2 2 2 2 2 2 2 2 2 2 2 2 2 2 2 2 2 2
left_child=2 5 3 11 6 8 15 13 -2 18 21 -1 29 -6 27 17 26 23 -10 -4 -20 -11 -9 24 -3 -25 -5 -15 -14 -8 -7
right_child=1 4 19 16 7 30 12 22 9 10 -12 -13 28 14 -16 -17 -18 -19 20 -21 -22 -23 -24 25 -26 -27 -28 -29 -30 -31 -32
leaf_value=0.052196127714775567 0.055009651682422271 -0.15213097348067928 -0.055423924584108913 -0.08326335375480981 -0.1074329930274654 -0.099390168943022258 0.010073321128091544 -0.00018979034649476887 -0.099908456441917273 -0.055218292807413395 0.026212785300232105 -0.011736477370727189 0.015188820461822123 -0.0043518274952676333 0.081257640538036774 0.092343609527109238 -0.10100580622108773 0.080646862440958866 -0.072456019112659795 -0.11067332447384937 -0.0048390426192597442 -0.00028634467352231318 -0.056056361317773619 0.080946461591475338 0.073630399512029196 0.044063139644407501 -0.043078056158675229 0.050739002249143197 -0.057526368635459138 0.061987194481610358 -0.036645454528608998
leaf_weight=3774.9062710098224 4803.1980578524817 385.09953853313345 2144.5699639281374 4753.9606990563334 358.46607416518964 1203.0685021829559 1592.2471762156347 2939.5146395646734 980.02588623794145 2341.42424942035 23680.621747978264 3652.8248118319025 2981.0936668638606 3446.2912743696943 3071.0833501457237 14293.687892013812 8276.7491308368626 14147.430236457149 1601.3840923787793 23757.39214490517 7243.0494570942828 9415.0047734654217 2840.1651831218333 4448.3462659598445 623.7690229130676 9616.408816457435 4976.9757433520863 2011.3103204979561 931.29924366716295 6166.4868473673705 2851.9396719695651
leaf_count=32279 28554 3254 68701 159177 13439 55382 7432 46252 65804 49445 113322 20743 11822 46927 16023 45952 428008 62862 18085 1496594 69122 83036 62284 31887 3028 29583 104502 12939 6629 15206 141707
internal_value=0 0.0325898 -0.0786997 -0.0507979 0.0538324 0.00517179 0.065633 0.00943114 0.0100666 0.00529716 0.0137921 0.0207552 0.0334147 0.0335419 0.0394672 0.0742743 -0.0803118 0.0654355 -0.0253441 -0.106099 -0.0170819 -0.0112267 -0.0276429 0.0511589 -0.0125459 0.0557285 -0.0627102 0.015951 -0.00212018 0.0513334 -0.055261
internal_weight=0 123972 51337.4 25435.4 69852.7 54119.7 55185.9 14666.8 50064.7 45261.5 35437.1 7427.73 11671.1 8887.15 8528.68 43514.7 18007.7 29221.1 9824.46 25902 8844.43 11756.4 5779.68 15073.6 1008.87 14064.8 9730.94 5457.6 3912.39 7758.73 4055.01
internal_count=3349980 1039976 2310004 744709 415519 624457 217655 197864 427368 398814 245803 53022 41089 89328 75889 176566 691687 130614 153011 1565295 87207 132481 108536 67752 6282 61470 263679 59866 18451 22638 197089
shrinkage=0.1


Tree=12
num_leaves=32
num_cat=0
split_feature=2 2 0 3 0 0 3 10 14 16 3 5 3 8 3 2 16 14 4 3 10 16 15 3 5 4 1 8 2 15 15
split_gain=37872.2 6739.82 3351.93 4449.16 2604.16 2222.85 2124.25 1194.43 773.233 769.007 720.382 715.194 594.397 653.455 577.056 574.334 571.968 913.413 551.22 516.049 591.508 514.577 487.532 470.889 460.066 389.585 517.1 388.374 363.14 351.679 351.176
threshold=-1.8437627386299997 0.87908247113250015 1.5000000000000002 -4.9518575499999988 1.5000000000000002 1.5000000000000002 -4.6451544999999994 -7.1033967839799992 1.5000000000000002 2.5000000000000004 -6.2190266999999988 1.5000000000000002 -7.3481420999999987 -7.7430536448999989 -10.945784099999999 6.911832012235001 1.0000000180025095e-35 1.5000000000000002 -4.0761098999999996 -7.447734099999999 -8.5900051565849989 2.5000000000000004 0.59411764705900005 -3.4666839999999994 2.5000000000000004 -3.6459635499999994 -1.0000000180025095e-35 -7.7430536448999989 -0.20210308022799997 0.46410256410250006 0.27922077922050004
decision_type=2 2 2 2 2 2 2 2 2 2 2 2 2 2 2 2 2 2 2 2 2 2 2 2 2 2 2 2 2 2 2
left_child=2 4 3 10 6 12 16 8 11 -7 -1 -8 -3 22 -4 27 17 -2 -13 -18 -21 -6 -14 -5 28 -20 -27 -11 -9 -22 -15
right_child=1 5 14 23 21 9 7 24 -10 15 -12 18 13 30 -16 -17 19 -19 25 20 29 -23 -24 -25 -26 26 -28 -29 -30 -31 -32
leaf_value=0.046009038829492199 -0.089558215497030191 0.092872537488646545 -0.056794292792155233 -0.064375381374051868 -0.0079325519120323363 0.05907151117783941 -0.10491857423322344 -0.078153646165830329 -0.064649490960897102 -0.020250669930145383 -0.016543359730064353 -0.061391585563127862 0.020240289270537167 -0.014645745946053629 -0.10982290830960864 0.054722911551394297 0.088961174559172948 0.067772276975713627 0.048661066806175941 0.01110957123448111 0.031496622152309278 -0.067687545228801313 0.062098252478181362 -0.099482988452830268 0.029283683273544317 -0.080639630202949217 0.0025805756226325669 0.056869127892844068 0.0050332827707727954 0.066779605530715533 0.090520404569711152
leaf_weight=3549.5455123479478 792.09187813370954 10539.657663764781 2279.8095133283932 8085.3104641645186 2114.9675288784783 3804.5723900512094 691.30488854448777 583.93975776911248 2435.5157124022808 5221.8374026895035 3825.1069332823099 1419.329014672694 3724.5525612530764 330.452923838282 20544.752712894813 1737.4510238172952 2673.2030526188319 690.86778175708605 1715.7504324037 4594.4354347540648 4567.7762008426944 4523.2159546916082 11002.261594044976 7242.8625654880307 17064.956679384224 784.6510853645741 15417.049967957777 746.34012155787786 5178.271419511555 7404.1246959331329 8114.1824501531664
leaf_count=30846 7170 66754 87454 245849 66783 30183 62305 6664 47740 88967 28900 26041 14493 2424 1449623 10300 31224 4466 10831 24107 20569 219616 28473 418194 73310 19436 133972 7322 38857 21743 25364
internal_value=0 0.0299201 -0.0774648 -0.0502583 0.0110547 0.0602289 0.0170584 0.00492445 -0.011446 0.0222862 0.0135642 -0.00497623 0.0731839 0.0642285 -0.104526 0.00412379 0.0435783 -0.0162625 -0.00140322 0.0481907 0.0416119 -0.0486492 0.051512 -0.0809644 0.0210342 0.00334875 -0.00144979 -0.0106066 -0.00339684 0.0533177 0.0864051
internal_weight=0 117873 45527.4 22702.8 72651.5 45221.3 66013.3 45290.8 22463.6 11510.2 7374.65 20028.1 33711.1 23171.4 22824.6 7705.63 20722.5 1482.96 19336.8 19239.5 16566.3 6638.18 14726.8 15328.2 22827.2 17917.5 16201.7 5968.18 5762.21 11971.9 8444.64
internal_count=3349980 1089114 2260866 723789 814834 274280 528435 419156 300325 136772 59746 252585 137508 70754 1537077 106589 109279 11636 190280 97643 66419 286399 42966 664043 118831 164239 153408 96289 45521 42312 27788
shrinkage=0.1


Tree=13
num_leaves=32
num_cat=0
split_feature=2 2 0 3 0 10 16 3 3 2 3 2 8 5 10 10 14 10 16 3 0 5 3 16 3 16 10 10 16 9 6
split_gain=31982.9 5108.34 3899.56 4285.99 1811.4 1546.17 826.942 790.198 749.844 723.105 718.582 655.27 709.291 558.309 534.909 504.477 491.245 439.047 430.748 353.85 475.089 370.242 343.47 342.609 330.721 329.089 327.348 316.717 314.067 261.324 249.626
threshold=-1.1139437146449997 0.79300459288050007 1.5000000000000002 -4.5742914499999996 1.5000000000000002 -6.9332193269249993 3.5000000000000004 -5.9872596499999995 -12.053203299999998 1.0000000180025095e-35 -10.400813599999998 4.0914889499550009 -7.904132211114999 3.5000000000000004 -10.013561718149999 -11.317541917199998 2.5000000000000004 -7.3364572841699989 3.5000000000000004 -5.607843299999999 1.5000000000000002 1.5000000000000002 -4.0537285999999986 1.5000000000000002 -3.2964550999999997 1.0000000180025095e-35 -9.7796270125949984 -7.8726852685249993 3.5000000000000004 -6.2150905132299998 -1.0000000180025095e-35
decision_type=2 2 2 2 2 2 2 2 2 2 2 2 2 2 2 2 2 2 2 2 2 2 2 2 2 2 2 2 2 2 2
left_child=2 5 3 7 11 6 13 30 16 28 -4 12 22 19 -5 -15 -6 -10 -11 20 -2 -21 29 -23 -17 -16 -9 -18 -7 -3 -1
right_child=1 4 10 14 8 9 -8 26 17 18 -12 -13 -14 15 25 24 27 -19 -20 21 -22 23 -24 -25 -26 -27 -28 -29 -30 -31 -32
leaf_value=-0.043493569271228265 0.041280175492182186 -0.027349116310272942 -0.054655948626313539 -0.093991876641662087 0.097604597160215356 0.018363729598044023 -0.057504672206894862 -0.041148334340971052 -0.02700451046284116 0.05413756656141501 -0.10767415456949665 0.09108279363330174 0.080020512241053082 -0.014616628306790329 0.050463225853629404 0.036882222094553989 0.011937657123776922 0.03068131266041578 -0.012991040656362619 -0.10341027624840241 -0.083277499829294041 -0.010661410003513401 -0.00023906780108710771 -0.064321683748901348 0.0061926008513944085 -0.060204135675131047 0.0080458175524416638 0.070359771692796932 -0.055956453290463143 0.053088385797923382 0.046401065278762463
leaf_weight=333.79251038294751 1776.5248912617099 418.24005842860788 2960.5402098353079 8025.5845092921809 1441.5399898879696 17880.540340380059 2581.0790954489494 2765.9565786802559 3376.7400757254218 10411.150025899871 18726.088933635328 9073.4943562045228 9772.5064256424084 5300.0975741958246 280.78162644822442 7047.392688718799 2970.387905716052 2165.5164819004131 1052.5272151786485 570.06023993119015 369.99697893351549 6782.9606232124497 1509.5530175727326 1442.9745761690428 6998.3071184702567 6246.9844493161654 2647.216211574414 1349.5144265200361 587.27825668774312 11771.492837799131 4142.7294290259015
leaf_count=1564 16351 4648 142157 457992 8221 106019 88605 38625 67330 52011 1486403 32753 58539 76845 4736 56928 33983 23609 12388 63273 16115 80878 6364 15736 44418 225423 24073 8805 15897 42129 37162
internal_value=0 0.030091 -0.0695691 -0.0421826 0.0562826 0.0118034 -0.00316982 0.0086144 0.0217951 0.0282462 -0.100436 0.0682609 0.0594386 0.00146043 -0.0767016 0.0116714 0.0470563 -0.00446503 0.0479742 -0.016592 0.0198101 -0.0254753 0.0447564 -0.0200744 0.021591 -0.055444 -0.0170908 0.0301884 0.0160003 0.0503285 0.0396981
internal_weight=0 106650 46129.7 24443 43849 62800.9 32869.4 9889.69 11303.7 29931.5 21686.6 32545.3 23471.8 30288.3 14553.4 19345.8 5761.44 5542.26 11463.7 10942.5 2146.52 8796 13699.3 8225.94 14045.7 6527.77 5413.17 4319.9 18467.8 12189.7 4476.52
internal_count=3349980 931845 2418135 789575 286381 645464 459149 101424 141948 186315 1628560 144433 111680 370544 688151 178191 51009 90939 64399 192353 32466 159887 53141 96614 101346 230159 62698 42788 121916 46777 38726
shrinkage=0.1


Tree=14
num_leaves=32
num_cat=0
split_feature=2 2 0 3 10 0 3 2 10 3 15 0 2 16 0 3 5 4 4 4 1 14 1 10 14 11 8 4 4 9 16
split_gain=27154.8 5163.6 2753.61 3215.88 1924.46 1405 1041.03 916.698 854.583 672.934 672.93 571.124 557.598 616.875 557.123 547.271 530.882 426.569 358.213 320.873 311.893 380.596 305.585 292.557 287.441 290.575 270.05 251.61 356.397 237.56 231.497
threshold=-2.0043308604499996 0.30981120467200007 1.5000000000000002 -4.5742914499999996 -7.8726852685249993 1.5000000000000002 -5.5620165999999989 2.0966047532850003 -9.5233748915299987 -6.2190266999999988 0.64495798319300013 1.5000000000000002 4.0914889499550009 2.5000000000000004 1.5000000000000002 -11.162639449999999 2.5000000000000004 -3.6459635499999994 -10.031943799999999 -5.276298699999999 0.17177275795850003 1.5000000000000002 4.1903342840850009 -10.077167303849999 1.5000000000000002 0.62554155354300012 -7.5493721542899985 -2.8861384999999999 -2.9111970499999997 -6.0464844703649989 3.5000000000000004
decision_type=2 2 2 2 2 2 2 2 2 2 2 2 2 2 2 2 2 2 2 2 2 2 2 2 2 2 2 2 2 2 2
left_child=2 5 3 9 7 6 19 11 10 -1 -8 17 13 26 29 -4 24 -3 -7 -2 30 27 -16 -5 25 -10 -6 28 -22 -9 -18
right_child=1 4 15 23 12 18 8 14 16 -11 -12 -13 -14 -15 22 -17 20 -19 -20 -21 21 -23 -24 -25 -26 -27 -28 -29 -30 -31 -32
leaf_value=0.038928777103688222 0.060018552453407752 0.032620511074151974 -0.048864196409422751 -0.094431765353938199 0.051875912244173178 -0.0016129770085221693 -0.074080733149568451 -0.01831566901804374 -0.079511198692598095 -0.021190738373865488 -0.0091813460810210024 -0.037982789963665289 0.088522605354573292 0.024887599255982565 -0.037345279460147533 -0.10691370472555169 0.014265697369916076 -0.021214920898473526 -0.066475698895173213 0.010353362980300655 0.04313780802393246 -0.010647028736265003 0.030061754001390086 -0.062287458381781236 -0.067607979232465046 0.0003587838318293066 0.075782630109476584 -0.062946407941789531 0.11651776215865971 0.068343013438965428 -0.065130805282003976
leaf_weight=3106.0241023853305 4722.5352982348413 5061.1634080808726 1802.9549302874948 6494.2174797560074 8686.7747086276649 1149.3411917250196 2017.7162863491103 333.86127143655904 490.50691280998581 4647.9422858415928 7674.6586708635296 2573.8348368178995 7203.6564922941034 4836.3803835437284 813.88938371604308 16369.13512072053 21250.487101141072 2075.3298416111211 3284.8637467333028 1795.416445049108 2249.5855001222226 1042.3604027677793 3872.6449269555742 5020.1378711840443 830.99293839157326 6383.0300713547622 10360.364277231158 162.21037997072563 937.80254361382686 6026.6265076975105 373.69141568092164
leaf_count=29541 35311 24578 74355 416027 39706 49463 45486 2426 47245 55452 129944 65040 35122 48865 17078 1441236 126916 11142 217374 8749 8353 9015 41956 207937 8526 57753 62630 1921 2857 20577 7399
internal_value=0 0.0258142 -0.0732288 -0.0468921 0.0483931 0.00428214 0.00907286 0.0248151 0.00347795 0.00289147 -0.0226918 0.00240037 0.0641365 0.0567812 0.0445176 -0.101154 0.011 0.0169649 -0.0496634 0.0463379 0.0178281 0.0421234 0.0183555 -0.0804172 -0.0120569 -0.00534087 0.0648796 0.058545 0.0647279 0.0637943 0.0128936
internal_weight=0 106210 37440.4 19268.3 51844.5 54365.2 49931 20757.4 43413 7753.97 9692.37 9710.33 31087.2 23883.5 11047 18172.1 33720.7 7136.49 4434.2 6517.95 26016.1 4391.96 4686.53 11514.4 7704.53 6873.54 19047.1 3349.6 3187.39 6360.49 21624.2
internal_count=3349980 1125432 2224548 708957 369120 756312 489475 182797 445415 84993 175430 100760 186323 151201 82037 1515591 269985 35720 266837 44060 156461 22146 59034 623964 113524 104998 102336 13131 11210 23003 134315
shrinkage=0.1


Tree=15
num_leaves=32
num_cat=0
split_feature=2 0 3 1 10 3 3 10 2 2 3 2 16 0 8 4 5 16 3 1 0 4 4 0 10 0 16 15 2 4 4
split_gain=23029.6 4127.51 3586.76 3280.56 1427.66 961.728 924.564 804.321 634.755 631.824 571.235 567.457 418.678 418.37 388.669 382.53 404.948 338.052 332.754 440.886 327.557 323.547 470.722 320.705 308.913 305.34 292.635 282.167 280.973 280.714 259.248
threshold=-0.31802663207049992 1.5000000000000002 -4.8910984999999991 0.96803151891750006 -8.1803844850499985 -9.7476702999999976 -3.2782779499999997 -6.3610965222099987 1.9481516713250002 -3.0908217281099994 -7.5222343499999988 1.1723807249200002 3.5000000000000004 1.5000000000000002 -7.6158013492849994 -3.6459635499999994 1.5000000000000002 1.0000000180025095e-35 -3.3125027499999997 1.0000000180025095e-35 1.5000000000000002 -2.9111970499999997 -2.8861384999999999 1.5000000000000002 -11.151294407249997 1.0000000180025095e-35 1.5000000000000002 0.095454545454550024 5.2392632961250003 -5.8923315999999994 -4.7577719999999992
decision_type=2 2 2 2 2 2 2 2 2 2 2 2 2 2 2 2 2 2 2 2 2 2 2 2 2 2 2 2 2 2 2
left_child=1 2 10 7 8 -3 9 12 23 -4 -1 13 15 -6 28 26 -17 30 -19 -20 -10 -18 -23 29 -12 -24 -2 -16 -13 -5 -11
right_child=3 5 6 4 11 -7 -8 -9 20 17 24 14 -14 -15 27 16 21 18 19 -21 -22 22 25 -25 -26 -27 -28 -29 -30 -31 -32
leaf_value=0.062845696867894846 0.037359422511944365 -0.048392732179881284 -0.068868039047377427 0.068005751738556275 0.050566721649160012 -0.10449584167385467 -0.096702540657858271 0.031462645677753913 0.05877322224218165 -0.1086540129846843 -0.029716077247106509 0.049684878104026026 -0.052619408482753316 -0.012239405320073411 0.00039812086953584271 -0.098603622360498744 -0.04693160839659398 -0.036406846074040364 -0.077328630773658646 0.12231280386130582 0.02143902451274099 0.094518596437629165 0.0009712641227015502 -0.030688009426588614 0.014204659272532422 -0.10121914035994561 0.00090927645069518559 0.094560243204913894 0.083775771503208779 0.0060878277213997486 0.10558628599439313
leaf_weight=1957.3031332711107 4968.6808371281368 3831.379338091705 5914.9641202821076 874.59190121910069 9020.179880272015 15087.709982627581 4993.7198943717813 12506.477616403165 5383.1832483498147 68.7021758214687 2162.0213020823721 7489.0419625485956 1370.9736426868476 1201.9372657015338 333.27199784171535 438.98105964087881 1455.3239542865194 5280.348438328394 172.72631591872778 307.63279280212009 4170.792643801833 534.44288526696619 17847.296143670916 2006.240170570527 6175.6178843019006 297.26087954913964 3956.3845945541107 7055.0551695650211 3570.1306572083267 4497.3521117028722 317.55309072276577
leaf_count=34248 29263 247578 268679 6279 43968 1470616 368673 70865 20741 1543 19370 45222 36820 30457 16524 64995 11849 117168 7928 1304 52213 1938 161189 57735 36206 3828 48168 32911 17362 22406 1934
internal_value=0 -0.0572231 -0.0323825 0.0297568 0.0484838 -0.0931342 -0.0605174 0.0100689 0.02546 -0.0455365 0.0142287 0.0620815 0.00140138 0.0431818 0.0725542 0.00391206 -0.00358839 -0.0230855 -0.0291579 0.0505262 0.042475 -0.00151681 0.00202156 0.00342752 0.00281564 -0.000702913 0.0212015 0.0903128 0.0606901 0.0161685 0.0674799
internal_weight=0 46269.7 27350.6 88977.6 45601.8 18919.1 17055.6 43375.8 16932.2 12061.9 10294.9 28669.6 30869.3 10222.1 18447.5 29498.4 20573.3 6146.96 5760.71 480.359 9553.98 20134.3 18679 7378.18 8337.64 18144.6 8925.07 7388.33 11059.2 5371.94 386.255
internal_count=3349980 2575247 857053 774733 345818 1718194 767229 428915 159374 398556 89824 186444 358050 74425 112019 321230 243799 129877 126400 9232 72954 178804 166955 86420 55576 165017 77431 49435 62584 28685 3477
shrinkage=0.1


Tree=16
num_leaves=32
num_cat=0
split_feature=2 2 0 3 10 0 3 2 14 1 3 16 14 0 3 3 3 10 16 3 3 11 15 3 3 4 16 1 4 3 3
split_gain=19804.3 4341.07 2143.35 2322.64 1384.96 1331.8 1309.6 833.023 819.31 647.084 711.659 587.539 610.647 586.351 562.305 528.871 507.422 465.736 443.051 422.014 415.271 357.125 318.151 308.85 273.077 266.354 257.926 257.234 256.587 244.165 231.884
threshold=-2.3175275325799993 0.71582007408150006 1.5000000000000002 -5.607843299999999 -6.5933589885599995 1.5000000000000002 -5.1881139499999991 3.6537705990500005 1.5000000000000002 -0.73869085125799983 -3.2964550999999997 1.0000000180025095e-35 1.5000000000000002 1.5000000000000002 -3.3125027499999997 -3.6579386999999994 -11.048793099999999 -8.0958509728249997 1.5000000000000002 -10.571047349999999 -3.9049565499999992 0.20196528052000004 0.095454545454550024 -3.6579386999999994 -7.2756003499999986 -2.4870290999999995 4.5000000000000009 4.1903342840850009 -5.1150111499999991 -3.4666839999999994 -10.841810999999998
decision_type=2 2 2 2 2 2 2 2 2 2 2 2 2 2 2 2 2 2 2 2 2 2 2 2 2 2 2 2 2 2 2
left_child=2 5 3 -1 7 6 11 13 9 -8 14 12 -2 23 17 -5 -4 -11 21 -7 28 -12 -6 -3 -13 -16 -9 -24 -10 -19 -15
right_child=1 4 16 15 22 19 8 26 20 10 18 24 -14 30 25 -17 -18 29 -20 -21 -22 -23 27 -25 -26 -27 -28 -29 -30 -31 -32
leaf_value=0.020332954395611773 -0.10184873787126472 0.035136830235764194 -0.045172292521654972 -0.047607251096353248 0.0012468077177146975 -0.0011226803744721874 -0.042149151968500949 0.062545699899404728 0.040687488133293225 -0.0090896875106324972 -0.090144733921281417 0.077601336004563204 0.058609284112250817 0.0068079833776631023 0.10841832809237882 -0.089885053318660729 -0.10520786321539242 0.043842297297622262 -0.11450785707786221 -0.062045370425340474 -0.069471943228358715 0.0042943446995967914 0.064077580551066035 -0.035555785903063845 0.037604466808822547 -0.1580284603888433 0.015615206868329196 0.091537183279354895 -0.028148139981220701 -0.10164679827671846 -0.04190643618950575
leaf_weight=4023.3365105429839 574.89404962118715 9327.7021737508039 1581.7543483525806 6261.9341848142649 604.69551358139142 1656.6914028686733 2539.1362893111145 8216.7308124910924 707.44872489175759 2786.9219209516596 407.27400764463528 2104.904217014031 403.73664286034182 2176.6917008655146 1097.4642177017522 5609.3977218637519 12803.92188471229 5560.2964972712507 326.83250259968918 3624.7840442525558 2156.2158144345885 23798.695063256411 8332.5288256293861 661.86783508723602 9029.9690807915758 38.8459041074384 1365.7239393288037 5776.4155601589591 2308.64556649726 117.79495595348999 1773.1034694906266
leaf_count=34406 6208 48004 74814 199718 28986 71664 65595 48947 5470 24886 65237 31603 3542 39443 4309 445220 1396193 22339 6680 270644 55192 201730 39261 3834 39796 946 14223 29581 24595 1173 45741
internal_value=0 0.0219442 -0.070641 -0.0453302 0.0482121 0.00499016 0.00968105 0.0331596 0.00129905 0.00655398 0.0101769 0.0386363 -0.0356514 0.0175565 0.0332576 -0.0675842 -0.0986067 0.024391 0.00114383 -0.0429352 -0.03596 0.00270537 0.0722757 0.030453 0.0451654 0.0993096 0.055857 0.07532 -0.0120022 0.0408241 -0.0150604
internal_weight=0 97476 30280.3 15894.7 38235.5 59240.6 53959.1 23521.8 41845.6 36673.3 34134.1 12113.5 978.631 13939.4 9601.32 11871.3 14385.7 8465.01 24532.8 5281.48 5172.31 24206 14713.6 9989.57 11134.9 1136.31 9582.45 14108.9 3016.09 5678.09 3949.8
internal_count=3349980 1199629 2150351 679344 298020 901609 559301 200192 478152 392895 327300 81149 9750 137022 53653 644938 1471007 48398 273647 342308 85257 266967 97828 51838 71399 5255 63170 68842 30065 23512 85184
shrinkage=0.1


Tree=17
num_leaves=32
num_cat=0
split_feature=2 2 0 3 8 10 2 4 0 3 0 3 16 5 2 1 9 3 16 15 3 3 12 16 1 16 10 6 16 3 1
split_gain=16969.6 3722.23 2136.07 2125.84 1245.79 1240.04 774.794 683.104 722.853 530.108 520.395 446.512 440.996 418.675 369.393 349.221 290.211 285.913 280.168 271.651 267.295 263.831 260.021 253.128 250.567 261.104 234.715 216.704 221.686 252.877 211.62
threshold=-2.1119584441149999 0.87908247113250015 1.5000000000000002 -5.3367967499999986 -7.9948917739099992 -9.5233748915299987 5.2392632961250003 -3.6459635499999994 1.5000000000000002 -12.053203299999998 1.5000000000000002 -3.4666839999999994 2.5000000000000004 3.5000000000000004 -0.14540285989649998 -0.096001532367999978 -5.6836435794799991 -8.2507149499999972 2.5000000000000004 0.095454545454550024 -8.2507149499999972 -9.8686920999999987 -7.9057051665149993 2.5000000000000004 -3.1956715837349994 1.0000000180025095e-35 -5.9589274998749993 1.0000000180025095e-35 1.0000000180025095e-35 -7.0914576999999994 -3.0569801001999992
decision_type=2 2 2 2 2 2 2 2 2 2 2 2 2 2 2 2 2 2 2 2 2 2 2 2 2 2 2 2 2 2 2
left_child=2 5 3 17 6 12 10 8 14 -4 16 24 -2 -10 22 -9 -3 -1 26 -6 -18 23 -7 -12 -5 -26 -17 -16 29 -29 -27
right_child=1 4 9 11 19 7 -8 15 13 -11 21 -13 -14 -15 27 18 20 -19 -20 -21 -22 -23 -24 -25 25 30 -28 28 -30 -31 -32
leaf_value=0.065899336967671224 -0.010681069355480827 -0.024238849083581711 -0.028295513564527065 -0.073363565919915733 0.0076947011722649887 0.030649722642442031 0.06502418996727595 -0.061264218884577885 -0.073726330260318301 -0.10226542207890402 0.04574698711531832 -0.091228499681923536 -0.05354345467030916 0.0092340401584791541 0.049223999927321856 0.0016432170055786111 0.077666001920833977 0.001902974994383289 -0.062041224241460073 0.079415526805421147 0.03287463494748407 -0.041082123818766497 -0.012149553244405475 -0.0082255358754418553 0.077125627682344822 0.062869520649864119 0.02807503445646414 0.089989305621247018 0.027479334380901218 -0.14735671911723006 -0.045309570420049995
leaf_weight=844.38564133949694 11470.462285864749 772.93232742603868 1052.5211532387038 2654.8114578182576 557.19346043514088 3841.5579737464432 6076.8410036456189 830.08335715305293 969.76864688890055 12186.539077651018 1325.5723220588407 4370.6816215128201 3035.6535800415877 1632.1616373630823 10683.713629704464 17750.24274829925 1548.9116038455395 4029.8302424388239 610.39305766543839 10116.256492647575 9526.8351437529636 1345.1508285076998 2251.4279705898371 2522.5583861632331 202.70438034131075 191.02189975822694 4143.9227375534101 60.639937207568437 668.44756479706848 172.82839364325628 3389.14829106869
leaf_count=20881 214005 7249 43661 122101 29602 34996 35290 18612 67253 1456960 14007 406256 169494 78641 51174 180291 11088 21784 8016 54822 36770 32820 18776 52632 2508 4121 20722 2111 10635 1284 121418
internal_value=0 0.0210213 -0.0668062 -0.0418363 0.0474133 0.00567682 0.0343671 0.0141006 0.0275247 -0.0963847 0.0234353 -0.0665609 -0.0196508 -0.0216862 0.0347675 0.00243348 0.0350042 0.0129894 0.00478298 0.0756714 0.0391386 -0.00295961 0.0148349 0.0103665 -0.0498136 -0.0332862 0.00664598 0.0452503 -0.00182055 -0.0857096 -0.0395376
internal_weight=0 91913.6 28921.6 15682.6 33792.3 58121.3 23118.8 43615.2 20280.5 13239.1 17042 10808.4 14506.1 2601.93 17678.6 23334.6 11848.7 4874.22 22504.6 10673.4 11075.7 5193.28 6092.99 3848.13 6437.69 3782.87 21894.2 11585.6 901.916 233.468 3580.17
internal_count=3349980 1150290 2199690 699069 274280 876010 189856 492511 264870 1500621 154566 656404 383499 145894 118976 227641 55107 42665 209029 84424 47858 99459 53772 66639 250148 128047 201013 65204 14030 3395 125539
shrinkage=0.1


Tree=18
num_leaves=32
num_cat=0
split_feature=2 2 0 3 10 2 16 3 2 3 10 16 3 3 4 16 3 16 0 4 4 3 4 3 10 2 3 16 10 4 3
split_gain=14446.6 3407.49 1866.16 1854.09 1410.68 782.451 731.236 508.508 502.068 415.087 367.864 359.927 348.953 498.225 571.08 302.934 300.715 279.417 273.781 636.172 272.247 453.207 304.249 269.674 229.479 229.158 224.019 222.241 220.633 218.803 204.087
threshold=-2.3175275325799993 0.19949257001300003 1.5000000000000002 -4.5009172999999985 -7.1611529191299992 2.7296173498050007 2.5000000000000004 -11.048793099999999 4.0914889499550009 -5.9872596499999995 -9.6940369904049977 3.5000000000000004 -3.2964550999999997 -3.3125027499999997 -3.4709823999999996 3.5000000000000004 -3.2089924999999995 1.5000000000000002 1.5000000000000002 -5.276298699999999 -3.7293953999999996 -3.67763515 -3.6459635499999994 -3.9387621999999998 -12.012929606099997 8.458470011130002 -4.7126294999999994 4.5000000000000009 -10.697929290699998 -3.7293953999999996 -3.9849217999999995
decision_type=2 2 2 2 2 2 2 2 2 2 2 2 2 2 2 2 2 2 2 2 2 2 2 2 2 2 2 2 2 2 2
left_child=2 6 3 9 5 11 10 -4 15 -1 -2 16 13 14 20 -6 24 -14 19 -8 21 26 -22 -17 -3 27 -12 -7 -5 -21 -28
right_child=1 4 7 28 8 25 18 -9 -10 -11 12 -13 17 -15 -16 23 -18 -19 -20 29 22 -23 -24 -25 -26 -27 30 -29 -30 -31 -32
leaf_value=0.027715008355755077 -0.013466759054985908 -0.013857282853073055 -0.038747550156874838 -0.091964158502468196 0.052990415502096259 0.041504001364343762 0.048012422762411064 -0.10277694925766885 0.085635834796360333 -0.023848795249214384 0.03285476090684844 -0.03409234818645418 0.0025465597468745972 0.10229694971349168 -0.061457326667364198 0.020872671222088166 -0.088664785989135173 -0.09282700739798877 -0.060167981094456452 -0.017566284069576561 0.095403711366986221 -0.099015566841314684 0.0094010170956221814 -0.12438604196230107 0.022460908046936609 0.075920281396876954 -0.02022894594308132 -0.0092081969242678568 -0.058215189446864407 -0.083396299853200309 0.041036033629964899
leaf_weight=2803.4130889205844 8961.6000244975148 2220.2630263853353 1408.7875168568498 3614.5877606456052 16117.608522320486 6892.6736708933022 1053.2976492727466 10373.016373705839 4617.8906744963897 3523.1267417128911 5567.6698428084783 2043.2522214224737 17786.865207068957 742.34630091415602 842.67075058314367 1652.3134723166004 289.96344814624172 312.581540180312 2386.4919051162578 1101.6600633033231 1017.3408838192699 324.51759118563496 690.55922665665275 138.52153866295703 8039.3797524435504 1670.5330421985127 1878.5720817599795 988.04888049612055 4173.9441448603393 932.08099737628072 765.2314760548179
leaf_count=29024 202844 25753 74814 340020 116990 52184 12019 1396193 27621 56988 66045 54337 189157 3894 9582 22353 2977 10343 232054 15542 3218 4916 4416 1028 65543 7424 15687 15741 253312 32428 5533
internal_value=0 0.019121 -0.0657384 -0.0412131 0.0386169 0.0206935 -0.00050973 -0.0951208 0.0562361 -0.000999869 0.00430676 0.00432278 0.00962878 0.0229856 0.017675 0.0486551 0.011763 0.000899437 -0.0347314 -0.0150671 0.0241844 0.0168923 0.06063 0.00963687 0.0146014 0.0422774 0.021473 0.0351459 -0.0738778 -0.0477367 -0.0024962
internal_weight=0 89033.9 25896.9 14115.1 44670.4 22144.1 44363.5 11781.8 22526.3 6326.54 38890 12592.9 29928.4 11828.9 11086.6 17908.4 10549.6 18099.4 5473.53 3087.04 10243.9 8535.99 1707.9 1790.84 10259.6 9551.26 8211.47 7880.72 7788.53 2033.74 2643.8
internal_count=3349980 1199629 2150351 679344 391951 223959 807678 1471007 167992 86012 515635 148610 312791 113291 109397 140371 94273 199500 292043 59989 99815 92181 7634 23381 91296 75349 87265 67925 593332 47970 21220
shrinkage=0.1


Tree=19
num_leaves=32
num_cat=0
split_feature=2 2 0 3 10 8 8 2 5 3 16 0 4 3 14 3 16 10 4 15 5 5 0 10 0 3 3 1 2 4 15
split_gain=12478.5 3208.44 1556.53 1497.04 1167.57 1031.3 672.61 613.682 441.26 433.023 408.955 374.087 528.277 352.052 289.629 262.59 288.782 244.163 239.912 232.769 218.412 191.34 226.257 189.816 181.258 168.545 167.483 155.355 149.663 180.275 192.848
threshold=-2.7427654920599998 1.0645076558000002 1.5000000000000002 -5.607843299999999 -10.141623134449999 -7.9948917739099992 -7.6817854456599992 5.2392632961250003 3.5000000000000004 -10.175380249999998 1.5000000000000002 1.5000000000000002 -5.0533339999999987 -3.3862635999999999 1.5000000000000002 -3.2089924999999995 3.5000000000000004 -11.022473440549998 -9.821858899999997 0.095454545454550024 1.5000000000000002 3.5000000000000004 1.5000000000000002 -11.417189499199997 1.5000000000000002 -8.2507149499999972 -12.486348649999998 -0.37339445200449994 -0.14540285989649998 -3.6459635499999994 0.27922077922050004
decision_type=2 2 2 2 2 2 2 2 2 2 2 2 2 2 2 2 2 2 2 2 2 2 2 2 2 2 2 2 2 2 2
left_child=2 4 3 25 10 7 8 17 11 -4 -2 12 -6 23 20 16 27 -3 24 -7 -14 22 -19 -5 -12 -1 -21 -10 -8 30 -30
right_child=1 5 9 13 6 19 28 -9 15 -11 18 -13 14 -15 -16 -17 -18 21 -20 26 -22 -23 -24 -25 -26 -27 -28 -29 29 -31 -32
leaf_value=0.059268389319179576 -0.0061322790066740806 -0.001152439304543558 -0.047701284744109944 -0.076115074179881489 0.032106516799226735 0.0030125812922551921 -0.015861189091993584 0.060035076383578335 0.0095451115032346087 -0.10410911304665359 0.085178116888458499 -0.074740718263629838 -0.10073814758434577 -0.09184788619587915 -0.05506632215557683 2.3169052487157159e-05 -0.020536024433171214 0.020203998758633802 -0.051364527237421048 0.11925563008310601 -0.0061232755679541638 0.036288168144224149 -0.052280102402680953 -0.037422052418668354 -0.019530423396465008 0.0031946554036777447 0.072606633448870847 0.037343555736025012 0.0071082677153350236 0.020935111858632442 0.054908950312401596
leaf_weight=668.42349761698279 6528.183619849704 3631.9911268222495 1615.7608916272802 1857.3779064333066 3038.9310125815973 441.33404488442466 624.02518490079092 5693.0562826952664 2784.7256500000803 8628.5927198502977 208.68600249232259 811.2131556669774 250.30605298134469 2997.2814816878963 1544.8905063175334 7809.279629856348 1296.9260692205717 2109.6065690905671 4964.8384357172472 861.89575752743986 9655.9667853764986 8255.7482475674478 541.09738596633542 3994.502497372916 795.61554556537885 2706.5215902367781 7189.990769626369 7230.1639662846574 1023.293150051526 5200.5197270781282 4817.2954867999651
leaf_count=18001 108684 46848 122237 114130 37642 25946 6551 35290 60988 1283705 2146 79470 57925 342061 23935 63614 62891 16278 244547 3474 107273 61019 16331 148656 48080 13063 45110 63728 23882 40170 26305
internal_value=0 0.0171032 -0.066461 -0.0423661 0.00368019 0.0444799 0.0110315 0.0322031 0.00399896 -0.0952124 -0.02343 -0.0086577 -0.00495811 -0.0639779 -0.0147944 0.0141272 0.0238641 0.0213045 -0.0423478 0.0737243 -0.00851395 0.0287829 0.00540757 -0.0497032 0.00222719 0.0143003 0.0776001 0.029614 0.0317838 0.0344766 0.0465341
internal_weight=0 87309.6 22468.5 12224.1 58584.9 28724.7 46087.5 20231.5 34422.4 10244.4 12497.3 15301.3 14490.1 8849.16 11451.2 19121.1 11311.8 14538.4 5969.14 8493.22 9906.27 10906.5 2650.7 5851.88 1004.3 3374.95 8051.89 10014.9 11665.1 11041.1 5840.59
internal_count=3349980 1308127 2041853 635911 1057831 250296 654374 175766 557466 1405942 403457 306245 226775 604847 189133 251221 187607 140476 294773 74530 165198 93628 32609 262786 50226 31064 48584 124716 96908 90357 50187
shrinkage=0.1


Tree=20
num_leaves=32
num_cat=0
split_feature=2 0 3 1 3 10 3 8 10 2 4 2 16 16 4 4 15 8 4 4 5 9 10 3 5 16 3 0 10 1 15
split_gain=10767.5 2535.2 2028.28 1925.88 899.867 849.542 623.83 559.743 414.212 397.94 393.324 365.455 321.783 306.498 306.5 259.106 247.564 317.315 225.196 222.784 197.891 197.853 191.347 188.471 183.437 174.131 170.151 210.963 167.525 166.756 165.643
threshold=-0.26095093786699997 1.5000000000000002 -4.8910984999999991 1.6767960244300002 -9.5686222999999995 -7.5139292597749998 -3.2782779499999997 -7.8517543598999984 -11.184068381999998 5.2392632961250003 -5.8923315999999994 4.0914889499550009 1.0000000180025095e-35 3.5000000000000004 -3.6459635499999994 -4.7577719999999992 1.0000000180025095e-35 -6.903396666049999 -3.7293953999999996 -3.6459635499999994 3.5000000000000004 -5.4094734191899994 -11.350939471649999 -13.806700049999998 1.5000000000000002 4.5000000000000009 -3.8672965999999995 1.5000000000000002 -11.977184736749999 -2.0251678749799997 0.59411764705900005
decision_type=2 2 2 2 2 2 2 2 2 2 2 2 2 2 2 2 2 2 2 2 2 2 2 2 2 2 2 2 2 2 2
left_child=1 2 10 7 23 9 8 13 -4 21 -1 16 15 14 18 -10 -7 -18 28 -9 -14 -5 -12 -3 -16 -23 27 -15 -2 -22 -30
right_child=3 4 6 5 -6 11 -8 19 12 -11 22 -13 20 26 24 -17 17 -19 -20 -21 29 25 -24 -25 -26 -27 -28 -29 30 -31 -32
leaf_value=0.032670314329376331 -0.020527972014664872 0.01270607594098851 -0.073641912414976515 -0.023382596529155846 -0.099065864813376939 -0.01643163235201028 -0.08862891390075478 0.041519098431027877 -0.095644645192198063 0.051669878047185626 -0.050793747311772053 0.08043794760235802 -0.048922131146075104 0.012592654373925495 -0.10101833565636603 0.092246062866235809 0.039984653191280091 0.078193760530217676 0.069019448649892817 0.013642024714646015 -0.048844727113342194 0.023179692486445691 0.00039014758993902686 -0.048691017663026616 -0.0036700647447342328 -0.022752175725536578 -0.12344804552728435 -0.070676143180092577 0.0051512439707303362 -0.00055397451918505469 0.035189832612362672
leaf_weight=4213.1900055696897 1282.1235293650825 638.09034766316472 2503.3978357152519 1267.8335683358891 8992.7960872983604 578.68756405261229 3330.162480841318 5345.468731635774 91.774653506930918 3724.3649227822316 899.24061404101667 4703.6677487634006 3427.0187445213814 602.30757415510016 195.67036105018633 366.48233055288438 7743.0435828758782 3021.6817944781506 777.56655517735635 6182.2974742079386 1018.0071910510887 8471.8428764145792 3889.7914289680775 2309.8959951223442 17999.418489983233 914.46198717117659 228.88940645748517 614.85334985853115 4095.0963826871302 2403.0775358661485 3327.3343403709587
leaf_count=51706 19798 27337 176528 18737 1446170 27925 369539 47176 3052 24326 11606 30508 108965 6058 53052 3593 57038 20667 3130 55659 56674 87731 28266 250893 181670 25202 5034 33589 50511 53057 14783
internal_value=0 -0.0462091 -0.0261808 0.0221584 -0.0833482 0.0411852 -0.0512322 0.00791756 -0.038537 0.0235324 0.010385 0.0570025 -0.0265089 0.00053493 0.00287983 0.0546174 0.0472848 0.05071 0.0174572 0.0265687 -0.0319377 0.0136964 -0.0092207 -0.0354016 -0.00471695 0.0187048 -0.0443461 -0.0294709 0.0128512 -0.0149238 0.018617
internal_weight=0 34082.9 22142.1 71076.6 11940.8 30425.6 13139.9 40651 9809.76 14378.5 9002.22 16047.1 7306.36 29123.3 27677.2 458.257 11343.4 10764.7 9482.12 11527.8 6848.1 10654.1 4789.03 2947.99 18195.1 9386.3 1446.05 1217.16 8704.55 3421.08 7422.43
internal_count=3349980 2587386 862986 762594 1724400 292134 771408 470460 401869 155996 91578 136138 225341 367625 322944 6645 105630 77705 88222 102835 218696 131670 39872 278230 234722 112933 44681 39647 85092 109731 65294
shrinkage=0.1


Tree=21
num_leaves=32
num_cat=0
split_feature=2 2 0 3 8 8 16 2 3 10 4 4 3 16 14 3 0 16 15 3 16 3 1 3 10 15 5 1 3 15 16
split_gain=9358.18 2567.17 1323.92 1203.56 1077.53 831.515 610.965 483.458 415.518 390.816 398.367 327.112 351.437 323.55 412.325 286.42 443.15 286.003 271.805 258.574 216.784 199.374 235.208 195.229 194.883 185.344 174.585 173.521 155.872 155.258 175.003
threshold=-2.7427654920599998 1.3974203690850002 1.5000000000000002 -4.5009172999999985 -7.6817854456599992 -7.7430536448999989 3.5000000000000004 5.9773564711200011 -8.8726176999999975 -10.928764768699997 -3.6459635499999994 -3.7293953999999996 -4.6451544999999994 1.0000000180025095e-35 1.5000000000000002 -3.9049565499999992 1.5000000000000002 1.5000000000000002 0.46410256410250006 -6.3927269499999992 1.5000000000000002 -12.486348649999998 -0.19765433441999997 -7.1125685999999986 -11.119650031549998 0.095454545454550024 1.5000000000000002 -0.050027177663799993 -4.6451544999999994 0.46410256410250006 1.0000000180025095e-35
decision_type=2 2 2 2 2 2 2 2 2 2 2 2 2 2 2 2 2 2 2 2 2 2 2 2 2 2 2 2 2 2 2
left_child=2 4 3 19 6 7 9 24 -4 21 11 12 13 14 -11 16 23 -15 -12 -1 -13 -2 -23 -8 -3 -7 -20 -28 -6 -14 -31
right_child=1 5 8 -5 28 25 15 -9 -10 10 18 20 29 17 -16 -17 -18 -19 26 -21 -22 22 -24 -25 -26 -27 27 -29 -30 30 -32
leaf_value=0.027129484114173458 0.059606579150517536 0.0012566143805462359 -0.055838969728857969 -0.070561549203124713 0.041325074070933561 -0.0021546905255265939 0.069833942527404089 0.060439962213980063 -0.10562076105125567 -0.10726402055855354 -0.084304034811721537 0.08866675066324424 -0.0590841611179495 0.046271755760630945 0.040413025765829363 -0.11213553445324967 -0.060750000679839114 0.011936431781105386 -0.099420259411577325 -0.020222258227196303 -0.020121839384092916 -0.051535956293840127 -0.01226359019004724 -0.011559446220457709 0.029702969562153372 0.082520224150555044 -0.048463088448307712 -0.00018234289618387057 0.018676424095761802 0.07939624677133339 -0.011692743261824984
leaf_weight=1740.177447416936 305.55519784730859 3113.92406501394 2304.4348080377677 5830.3707820379495 6075.7128782960208 272.8756623751251 410.63795652752742 4690.3488758677267 6154.8871235663246 422.09741701466191 425.08569632299259 939.9417796486523 638.82494888429937 4189.3344082176045 342.46177731640637 493.9521145578874 2049.9535608340848 5763.6254856550222 187.26075591877452 3419.0036122498277 227.50874064781237 2079.7298960621483 5717.7843773948916 1043.6787749686337 10628.875064869673 4908.4803382107348 779.31437744479626 16613.22856610913 6078.9978509935754 228.0808770271251 2803.0361737020867
leaf_count=23583 8084 40469 290028 557455 64482 17844 6995 28422 1115914 3591 7790 3536 10610 37813 5597 26481 209968 145419 57925 54873 2508 121592 100009 11847 95191 31758 25105 157290 46392 1136 40273
internal_value=0 0.014885 -0.0623219 -0.0394311 0.0035375 0.0426673 -0.00350605 0.0327186 -0.0920595 7.73422e-05 0.00483646 0.0165582 0.0124274 0.021573 -0.0411164 -0.0408462 -0.0307974 0.0263886 -0.0052903 -0.00425065 0.0674664 -0.0196331 -0.0227382 0.0114226 0.0232574 0.0780608 -0.00337972 -0.00234568 0.0299977 -0.0142811 -0.00483862
internal_weight=0 81430.3 19448.9 10989.6 57815.8 23614.5 45661.1 18433.1 8459.32 41662.9 33559.8 15554.9 14387.5 10717.5 764.559 3998.22 3504.27 9952.96 18004.9 5159.18 1167.45 8103.07 7797.51 1454.32 13742.8 5181.36 17579.8 17392.5 12154.7 3669.94 3031.12
internal_count=3349980 1308127 2041853 635911 1094443 213684 983569 164082 1405942 728278 498593 250483 244439 192420 9188 255291 228810 183232 248110 78456 6044 229685 221601 18842 135660 49602 240320 182395 110874 52019 41409
shrinkage=0.1


Tree=22
num_leaves=32
num_cat=0
split_feature=2 2 0 3 8 10 2 3 16 4 0 15 1 3 4 16 9 4 14 4 15 1 3 10 3 0 3 15 4 3 3
split_gain=8098.15 2469 1077.82 998.223 896.648 746.334 616.014 359.334 351.043 283.254 324.139 243.839 235.694 228.428 270.273 471.681 226.882 217.762 216.208 212.693 210.155 205.27 238.393 196.383 187.083 186.196 181.603 180.148 177.475 178.482 332.018
threshold=-3.2981583699549994 0.71582007408150006 1.5000000000000002 -5.2717339999999995 -7.9948917739099992 -8.6687645415449968 4.6130105406050008 -11.410629949999999 2.5000000000000004 -3.6459635499999994 1.5000000000000002 1.0000000180025095e-35 6.5519420590000008 -5.1881139499999991 -3.7293953999999996 2.5000000000000004 -6.4387912750249994 -8.906572149999997 1.5000000000000002 -9.9999913499999984 0.27922077922050004 -0.19765433441999997 -3.4666839999999994 -12.012929606099997 -3.6579386999999994 1.5000000000000002 -10.400813599999998 0.46410256410250006 -3.5705233999999995 -3.2089924999999995 -3.3125027499999997
decision_type=2 2 2 2 2 2 2 2 2 2 2 2 2 2 2 2 2 2 2 2 2 2 2 2 2 2 2 2 2 2 2
left_child=2 5 3 -1 6 8 23 -4 19 10 13 -12 20 -7 27 -16 -8 25 28 -2 -6 22 -21 -3 -5 -10 -13 -15 -11 30 -30
right_child=1 4 7 24 12 9 16 -9 17 18 11 26 -14 14 15 -17 -18 -19 -20 21 -22 -23 -24 -25 -26 -27 -28 -29 29 -31 -32
leaf_value=0.0031849724572097383 0.049092810682241701 -0.011498561969128799 -0.032266066578804931 -0.048284210235363022 0.013468439466743193 0.036536302691540221 -0.063325558241970989 -0.10145916109435625 0.075720585743450322 -0.10154520056192134 -0.11026036227569072 0.051142886432453682 0.091733941568344413 -0.028158523369792545 0.083260940309409753 -0.086116728498949635 0.053032737126088872 -0.060785784138908276 -0.041551035602175664 -0.019864075702120211 0.06012134295390055 -0.0052076353140793463 -0.084110525006066444 0.018233985359291421 -0.083813248702043416 -0.027734092651782477 -0.027543991254861722 0.012312695307435763 0.0043239186382954204 -0.00064262194548787084 0.086770831146686767
leaf_weight=3236.2585227194359 584.84005832618641 2730.8521512591833 851.67839022298722 2994.7802052946645 1140.990908446518 6758.6950187472685 172.21372596418951 6320.0653855268538 214.76179844693979 161.88097286061384 266.25891754021723 401.28184840620088 1986.1157308717084 1507.0848855053773 964.29310179286404 198.20761996960209 6219.3709646865027 2557.2349129853355 1188.7656857178226 2714.1200294166629 6280.2454435972904 9911.2795151582359 733.68506631079799 11909.426049994727 2934.0915731967543 915.87561686175832 1090.0144341280102 4070.4580938704021 1604.4072484988137 13706.120521893114 702.22698853690235
leaf_count=32839 23675 40531 47932 157761 34680 53937 1584 1263527 5881 1388 36328 17615 16042 15740 4152 5617 43379 223827 22144 92350 43723 167202 69775 118081 382616 92242 108231 38765 13454 170209 4753
internal_value=0 0.0129992 -0.0642055 -0.0414843 0.0354746 -0.000614922 0.023996 -0.0932422 -0.0171911 0.00834492 0.0182862 -0.0221094 0.0611371 0.0235457 0.0105192 0.0543819 0.0498976 -0.0446281 -0.000389923 -0.00993458 0.0529486 -0.0125187 -0.0335356 0.012688 -0.0658669 -0.00808313 -0.00637072 0.00137713 0.00263524 0.00368845 0.0294239
internal_weight=0 80690.7 16336.9 9165.13 30439.2 50251.5 21031.9 7171.74 17631.8 32619.7 15256.3 1757.56 9407.35 13498.7 6740.04 1162.5 6391.58 3687.87 17363.4 13943.9 7421.24 13359.1 3447.81 14640.3 5928.87 1130.64 1491.3 5577.54 16174.6 16012.8 2306.63
internal_count=3349980 1465305 1884675 573216 298020 1167285 203575 1311459 674952 492333 280385 162174 94445 118211 64274 9769 44963 321950 211948 353002 78403 329327 162125 158612 540377 98123 125846 54505 189804 188416 18207
shrinkage=0.1


Tree=23
num_leaves=32
num_cat=0
split_feature=2 2 0 8 3 8 10 2 3 4 15 4 0 15 3 16 14 3 16 3 9 2 3 15 3 0 4 8 9 0 15
split_gain=6952.42 2174.45 1155.6 1104.54 979.895 666.469 448.244 430.108 418.446 250.038 330.124 297.28 284.794 268.293 245.393 267.358 242.721 225.047 215.98 232.284 266.771 207.384 197.234 272.072 164.791 221.54 226.821 160.625 158.216 142.641 142.039
threshold=-2.7427654920599998 1.7888231128450001 1.5000000000000002 -7.7430536448999989 -4.4308972499999992 -7.4731824025499991 -11.022473440549998 8.458470011130002 -10.175380249999998 -3.6459635499999994 0.57738095238100018 -9.9999913499999984 1.5000000000000002 0.59411764705900005 -5.7767140999999986 1.0000000180025095e-35 1.5000000000000002 -5.841386599999999 5.5000000000000009 -12.738461999999998 -5.4971494674699999 0.045028360560500004 -13.0501925 0.74166666666650005 -4.1136877999999992 1.5000000000000002 -5.8923315999999994 -17.306146137399995 -2.8029444217699999 1.5000000000000002 0.27922077922050004
decision_type=2 2 2 2 2 2 2 2 2 2 2 2 2 2 2 2 2 2 2 2 2 2 2 2 2 2 2 2 2 2 2
left_child=2 3 4 6 17 7 22 18 -4 10 11 -8 14 28 15 16 -13 -1 19 -3 -21 -5 -2 24 25 26 -24 -6 -11 -22 -23
right_child=1 5 8 21 27 -7 9 -9 -10 13 -12 12 -14 -15 -16 -17 -18 -19 -20 20 29 30 23 -25 -26 -27 -28 -29 -30 -31 -32
leaf_value=0.016567190902271278 0.037154890852527253 0.059843594711887618 -0.037462399993634335 0.012017384376303718 -0.093832214231685307 0.087331521527604608 0.040498048779936319 0.074405084366358162 -0.10067547632623325 -0.065681412322742869 0.0263193990153427 -0.15050652350779675 -0.039439622718163578 -0.0041424903697684402 -0.013258028541697581 0.034663693624602442 0.048937349263803331 -0.025714809015137098 -0.026895014566266001 -0.031919564018679424 0.035724802149606293 0.0080010203750721116 0.027065367125097356 -0.0066961952516334071 -0.079558764347738967 -0.062585040606230977 -0.037033680331578632 -0.055267921009368441 0.011528607493629238 0.0091538834083740774 0.043466951656187768
leaf_weight=2480.6123536965169 492.56194091468933 2260.6012156334473 1283.4125337182995 4965.9231315961952 1566.6339432313616 2760.5546554846806 1437.4413052757081 2299.7500945229549 5689.49084167603 1172.7244921899255 6737.3516125638416 156.12628697301261 2241.6531502116704 15622.058111261162 4408.498057217068 2511.0892411513196 100.16817828896455 2555.7807444066129 687.02086333234911 774.26886530985939 7853.8525726976222 1344.2788767234015 842.90937090128136 3549.4500371673821 983.45127384408624 1622.4494919721255 1599.866532388638 3477.3870007468213 343.0325453354526 2720.1128775114485 7058.9901467602467
leaf_count=27594 17191 24601 122237 51839 234920 28634 62891 10756 1283705 24410 61522 1589 199560 229365 50142 22421 817 56993 13950 10028 43071 35825 7647 65755 56606 170358 20870 316404 4207 47161 46911
internal_value=0 0.0128639 -0.0577416 0.00305859 -0.0360911 0.041835 -0.00461755 0.0342669 -0.0890407 0.000556879 0.00893152 -0.0018606 -0.008326 -0.00803987 0.0013935 0.0247337 -0.0725574 -0.00488934 0.02781 0.0305717 0.0247406 0.028219 -0.024386 -0.0279115 -0.0428268 -0.0339406 -0.0149155 -0.0672457 -0.0482079 0.0288895 0.0377934
internal_weight=0 76546.2 17053.3 57190 10080.4 19356.2 43820.8 16595.6 6972.9 34730.1 17592.3 10855 9417.53 17137.8 7175.88 2767.38 256.294 5036.39 14295.9 13608.8 11348.2 13369.2 9090.69 8598.13 5048.68 4065.23 2442.78 5044.02 1515.76 10574 8403.27
internal_count=3349980 1308127 2041853 1129926 635911 178201 995351 149567 1405942 656924 398942 337420 274529 257982 74969 24827 2406 84587 138811 124861 100260 134575 338427 321236 255481 198875 28517 551324 28617 90232 82736
shrinkage=0.1


Tree=24
num_leaves=32
num_cat=0
split_feature=2 0 3 3 10 3 3 3 1 10 16 10 15 15 4 4 14 8 16 14 16 15 16 4 16 3 0 3 4 15 16
split_gain=6065.43 1732.87 1483.07 1384.48 813.395 788.795 601.985 538.451 464.391 357.274 355.188 308.149 248.167 233.575 232.24 227.307 223.042 202.237 189.412 431.089 183.941 177.464 175.24 217.146 166.131 161.489 169.082 160.343 156.747 147.81 196.377
threshold=-0.20210308022799997 1.5000000000000002 -4.1136877999999992 -5.0909087999999993 -6.9920903444299993 -8.8726176999999975 -13.806700049999998 -3.0053469999999995 6.5519420590000008 -9.9149935431749991 3.5000000000000004 -13.314513999449998 0.40833333333350003 0.6396103896105001 -9.9560924499999981 -5.1496935499999994 2.5000000000000004 -7.6158013492849994 1.0000000180025095e-35 1.5000000000000002 1.0000000180025095e-35 0.27922077922050004 1.0000000180025095e-35 -4.8331849499999988 4.5000000000000009 -9.999841199999997 1.5000000000000002 -13.367061299999998 -4.1361246499999993 0.39230769230750007 1.0000000180025095e-35
decision_type=2 2 2 2 2 2 2 2 2 2 2 2 2 2 2 2 2 2 2 2 2 2 2 2 2 2 2 2 2 2 2
left_child=1 3 4 15 6 27 16 9 12 -5 17 -8 14 18 -6 20 -2 -4 19 -13 -1 -16 23 -11 25 -20 -27 -3 -12 -23 -31
right_child=2 5 10 7 8 -7 11 -9 -10 22 28 13 -14 -15 21 -17 -18 -19 24 -21 -22 29 -24 -25 -26 26 -28 -29 -30 30 -32
leaf_value=-0.052939920603467742 0.12147393231666909 0.0096606640717408765 -0.0048697277682867813 -0.057857054097133931 0.072675475561751898 -0.098085521188130118 -0.025395058325484988 -0.096106417748623912 0.08163074784749208 -0.10157931305357884 0.10306837866767614 -0.16107180325448869 0.049646989632815899 0.033694901740041493 -0.011149074730815091 -0.015950378709183803 0.046298218695000407 0.020471049726397614 0.033453248139686829 0.020689848661600476 0.026724868327658354 0.032428701994297641 -0.024189010602865324 0.082074036817225665 -0.031983666484441793 0.012215057464455156 -0.029014980993023506 -0.0466289998744292 -0.11536405455763421 -0.16203027331217035 0.014189416320905793
leaf_weight=307.09633932990255 475.60061536959256 641.60188027258846 19230.667867660013 4058.9253814298281 855.95227314444492 5571.8539907257582 2253.0046899350054 1648.934874505343 2909.2084578687209 80.935180884771398 36.105427003931254 215.36365005676635 8298.2378156753111 4396.0659121610806 1631.4647514243406 2179.6293336474919 2319.2757708381978 3766.1238339927295 2804.3281751166796 331.08553293795558 5155.5235187730432 4081.2107726546237 6028.2399969140242 314.75342440756503 887.17375415709103 5667.1243390348973 1206.3866745260602 2395.2430686660155 364.62000586767681 92.059692306036595 201.99357175867772
leaf_count=4365 2961 33342 264699 331413 20407 1302809 41232 263560 23237 2123 209 2570 48466 19526 46036 17749 30893 33192 53504 3189 57481 38619 189816 3026 30937 40778 40238 394808 7019 705 1071
internal_value=0 -0.0382897 0.017522 -0.0219864 0.0295572 -0.0757382 0.0159511 -0.0429876 0.0450345 -0.0346321 -0.00234616 0.00916249 0.0380121 0.0141832 0.0239433 0.0113523 0.0590908 -0.000719736 0.00646367 -0.0509451 0.0222463 0.0169991 -0.0199575 0.0445091 0.009433 0.0132297 0.00497867 -0.0347365 -0.0956833 0.027495 -0.0409799
internal_weight=0 28382.7 62023.1 19774 38625.5 8608.7 20555.4 12131.8 18070.1 10482.9 23397.5 17760.5 15160.9 15507.5 6862.68 7642.25 2794.88 22996.8 11111.5 546.449 5462.62 6006.73 6423.93 395.689 10565 9677.84 6873.51 3036.84 400.725 4375.26 294.053
internal_count=3349980 2600492 749488 869533 444369 1730959 265828 789938 178541 526378 305119 231974 155304 190742 106838 79595 33854 297891 171216 5759 61846 86431 194965 5149 165457 134520 81016 428150 7228 40395 1776
shrinkage=0.1


Tree=25
num_leaves=32
num_cat=0
split_feature=2 1 0 3 10 10 3 3 3 16 9 3 15 0 4 14 4 16 6 6 3 15 8 15 2 8 2 3 4 4 10
split_gain=5393.79 1935.48 804.489 694.487 661.516 591.446 485.506 372.605 363.393 354.967 332.756 313.483 311.355 216.436 267.659 215.694 211.03 204.031 292.886 241.289 199.621 197.996 188.716 183.187 175.15 174.999 166.623 165.347 159.599 155.849 149.208
threshold=-3.5399296879799995 2.1182917565600001 1.5000000000000002 -5.607843299999999 -8.5493139783549985 -7.2781223288399994 -13.367061299999998 -4.6451544999999994 -12.259917049999997 2.5000000000000004 -5.4971494674699999 -10.400813599999998 0.27922077922050004 1.5000000000000002 -9.9999913499999984 3.5000000000000004 -12.567060749999998 1.0000000180025095e-35 1.0000000180025095e-35 -1.0000000180025095e-35 -7.9460865999999992 0.11805555555550001 -7.0672413408749994 0.46410256410250006 3.6537705990500005 -7.3929850384599991 5.9773564711200011 -3.3862635999999999 -8.8751011499999972 -3.4709823999999996 -12.916543689149998
decision_type=2 2 2 2 2 2 2 2 2 2 2 2 2 2 2 2 2 2 2 2 2 2 2 2 2 2 2 2 2 2 2
left_child=2 4 3 -1 9 6 15 13 -7 16 -8 -4 -10 17 -15 -3 -2 18 19 -6 -20 -22 26 -9 -12 -25 -14 -5 -11 -19 -18
right_child=1 5 11 27 7 8 10 23 12 28 24 -13 22 14 -16 -17 30 29 20 -21 21 -23 -24 25 -26 -27 -28 -29 -30 -31 -32
leaf_value=0.0067583740142836014 0.071655127263191162 0.08216287294132002 -0.037441874126527497 -0.047180157947695693 -0.13928588717827553 0.090648628199659562 -0.04358104219503367 -0.031494771229281994 -0.0044567746356748497 -0.01308338560178237 0.0045139897382034484 -0.10102096578725783 0.031463254864654656 0.049336982319717365 -0.040395580704304712 0.027444885845074176 -0.03038621853024271 0.034186316904256796 0.073221096905296768 0.072101521637130489 0.089696959042607327 -0.16889907592920897 0.072015215690401466 -0.00097217965583277241 0.033370131231123465 0.02790833433269764 0.076029645447976177 -0.085754448087726642 -0.057539241128733092 -0.060738431513739137 -0.005511454267961984
leaf_weight=2308.6914010228938 316.91327609039763 1454.2975437304704 942.85707792048015 3573.491795511276 65.42262267624028 1836.9032395375543 1091.8936849233287 1711.1491346265393 1249.4281391096811 1178.0446996438332 5889.2980517537435 4369.229385629149 4823.0733176158828 484.8777641009583 1057.1942717031125 1427.5718892483856 3069.6631883409191 8648.9285000762029 56.873566454392858 309.2213033218286 34.220004347735085 219.69887555239256 2507.4149500078929 16682.847963192951 3272.1556690560537 2399.9205325976654 1015.5637229134445 1612.7082823654891 2567.8055792344585 176.48906263812387 11245.547237160617
leaf_count=24799 7960 14293 86808 221706 710 14062 17304 23467 38246 109393 110035 1180433 39589 22846 123691 21720 110517 76937 3059 1923 872 1852 21939 221629 26307 19428 6716 296703 235443 1444 268149
internal_value=0 0.0102681 -0.0599656 -0.0388654 -0.000982789 0.033269 0.0187937 0.00773541 0.0499003 -0.0160904 0.00860115 -0.0897361 0.0420996 0.0225715 -0.0121807 0.0550576 -0.00905858 0.0282062 -0.0243499 0.0351878 -0.0961193 -0.134049 0.0490693 -0.000150678 0.0148204 0.00265994 0.0392151 -0.0591753 -0.0435582 0.032288 -0.0108454
internal_weight=0 74792.4 12807 7494.89 50224.8 24567.6 13135.2 31846.8 11432.4 18378 10253.3 5312.09 9595.48 11052.9 1542.07 2881.87 14632.1 9510.85 685.436 374.644 310.792 253.919 8346.05 20793.9 9161.45 19082.8 5838.64 5186.2 3745.85 8825.42 14315.2
internal_count=3349980 1539531 1810449 543208 1229320 310211 189659 497858 120552 731462 153646 1267241 106490 233334 146537 36013 386626 86797 8416 2633 5783 2724 68244 264524 136342 241057 46305 518409 344836 78381 378666
shrinkage=0.1


Tree=26
num_leaves=32
num_cat=0
split_feature=2 1 0 3 8 3 10 3 4 0 3 16 14 15 9 2 3 15 3 1 1 8 16 14 8 14 8 16 4 4 9
split_gain=4634.37 1577.9 1130.28 961.033 716.789 464.347 429.424 356.184 283.821 373.139 408.218 384.085 615.499 339.902 230.722 218.566 212.497 230.249 181.44 185.209 207.1 174.374 187.821 165.121 160.378 158.065 152.913 145.383 139.444 137.117 135.758
threshold=-1.7872100006799998 3.9698186383000005 1.5000000000000002 -4.5742914499999996 -7.8517543598999984 -9.8686920999999987 -7.3967182065049988 -13.806700049999998 -10.920757099999998 1.5000000000000002 -5.1881139499999991 1.0000000180025095e-35 1.5000000000000002 0.46410256410250006 -5.2507131099699995 0.50262316502600013 -13.806700049999998 0.27922077922050004 -2.9464011499999994 -3.1017249137999996 -3.0569801001999992 -15.175203077499999 1.5000000000000002 3.5000000000000004 -17.479776623699998 2.5000000000000004 -7.3033702466649997 1.0000000180025095e-35 -5.3459549999999991 -6.1853259499999993 -2.8029444217699999
decision_type=2 2 2 2 2 2 2 2 2 2 2 2 2 2 2 2 2 2 2 2 2 2 2 2 2 2 2 2 2 2 2
left_child=2 4 3 24 8 -4 7 23 -2 10 11 12 -10 -12 -9 -6 -8 -18 19 -5 28 22 -15 -3 -1 30 -19 -22 -21 -13 -11
right_child=1 6 5 18 15 -7 16 14 9 25 13 29 -14 21 -16 -17 17 26 -20 20 27 -23 -24 -25 -26 -27 -28 -29 -30 -31 -32
leaf_value=-0.03170436118724311 0.037000273437544341 0.086676137457345995 -0.031934319393562026 -0.071878782805921443 0.013166311486764851 -0.096902055131552103 0.10261062176804842 -0.038667154312101729 -0.14425564518354833 -0.030864477076651034 -0.059945332708476601 0.043614751788100786 0.041182683668293564 -0.0091502092943447633 0.019980374335528364 0.038680661218698793 0.0096655866241190276 0.049316029110275272 -0.094605574130883149 0.18515565721427318 0.063853765083746281 -0.0012963539734659856 -0.048687574753776545 0.032943050474828296 0.010152737209618274 -0.061331474484437098 0.088608705211022709 -0.042086310476502936 -0.11395808164486528 0.014498203809659974 0.044064154644683953
